1.433941699470190900e-01 -7.955456701530047026e-01 2.642507395448633577e-03 -2.799388702514615246e-01 -4.932999697824831942e-01 -7.100950287037137709e-01 6.595276964243346196e-01 -1.577249706318816669e+00 2.408295693685212346e-01 -1.769829681097401242e+00 -7.744475689035537624e-02 7.872496365231369531e-01 2.789722006328074766e-01 -4.348659477575273630e-02 -1.633525533119401796e-01 6.114475578024245461e-01 -8.525283743957423263e-03 1.831946556177714569e-01 -2.976541206865692124e-01 -5.718502795377483627e-01 -2.460443386262236853e-01 -6.133545926003876048e-01 -1.457705741430777469e+00 -7.666653609496594246e-01 -7.904087503138276238e-01 -7.224648925935791555e-01 3.964828366989529007e-01 -4.175493362021095445e-01 -1.250704985292857785e+00 5.869663456773872856e-02 -2.658830757306506962e-02 -4.341519011878620105e-01 3.334865132662832576e-01 -1.148777297119807583e+00 5.068434581667192740e-01 -1.814262629953985684e+00 6.231060038240450183e-01 1.034257984158975852e+00 1.798703658843167907e-01 -1.396265575588959251e+00 2.813939617033234808e-01 7.380491874923175155e-01 1.172221122481929417e-01 4.422598098784799037e-01 7.768238134600243816e-01 9.195395829160344370e-01 -9.260261181577487122e-01 -7.745141789808224209e-01 3.712721589711096004e-01 -8.199691346040138828e-01
-8.050525598873476962e-01 8.199967770129900080e-01 -6.838833295558138792e-01 -5.208450502303042517e-01 2.354610960761454874e-01 -5.304795095183734328e-03 3.164208283735561733e-01 -1.953601010760479539e+00 3.030332348147191102e-01 -1.094776406090207432e+00 -1.658783734698902057e-01 1.457933069587317165e+00 -4.365582902470726001e-01 -1.238022392330184962e+00 -9.079667360352335894e-04 -6.931186481127709076e-01 -5.195548854364837599e-01 4.625708909491879073e-01 -6.923944451620136498e-01 1.484741704973832066e-01 1.165591259492814724e-01 -5.511685547858771184e-01 4.461190018221111026e-02 1.256561609612505126e-01 9.369228093066656049e-01 4.904033631350328548e-01 -3.109459590332717682e-01 -3.486061542301561733e-01 -5.635579146328185685e-01 1.450071691754757364e-01 4.873338722525147881e-01 -6.869962739810502317e-01 -3.442683619316422861e-01 -4.832327165079701170e-01 -1.012726519183195784e+00 1.752214976724602857e-01 3.127816028165563145e-01 -1.752826880314398844e-02 -1.771472269928506538e-01 -5.746504008866770707e-01 1.218455134724890782e-01 -1.282624034253122991e+00 -4.730661197285981889e-01 -3.688980867493982796e-01 -1.881940506113609635e-01 -8.613638079745425946e-01 9.896352448029575033e-01 -2.471198816734681558e-01 1.610179193130427899e+00 -9.085172319259045004e-01
-1.696536963898084727e+00 -3.020200462566562383e-01 -3.476157328927675372e-01 -9.372670700250033127e-01 -6.187389521856130337e-01 -1.327437938919112881e+00 -9.965140425400462743e-01 -2.636285166071513641e-01 -1.666328429632268016e+00 4.034946946340499663e-01 4.837196597429936906e-01 -5.071033784123030186e-01 1.791173057390088863e-01 -1.712813763618510898e-01 -1.624078536570911779e-01 3.254106330852609696e-01 -9.116320162249995640e-01 3.128972194599354273e-01 -8.411527350158222102e-03 -5.197046952859782909e-01 -1.568061321066831937e+00 -5.429339846375431655e-01 3.468895322267834258e-01 5.697373752904526523e-01 -1.696133177205405920e-02 -3.236256873593407746e-01 5.231476965765426146e-02 -2.964467676675533458e-01 8.060403753745205568e-01 4.789366077958085444e-01 -1.542200219433816355e-01 -7.378335471902787157e-01 8.425038773607414211e-02 6.359622949119471125e-01 -1.071834758900453544e+00 2.048789872366319487e-01 4.787403683257382414e-01 -1.013810710586254604e+00 -5.322818682135362911e-01 -1.038317167018620452e-01 1.288348469168246191e-01 3.791931059223452860e-01 8.255010537651249480e-01 1.278531961129822092e-01 3.651876575013386361e-01 6.597635895473025203e-01 -2.503640051696610080e-01 -7.292715901507857978e-01 -3.720363060204399108e-01 -1.228779991013889239e+00
-4.282497222835185968e-01 -1.109621064774126920e+00 -9.636229273943668350e-01 4.900409333505792997e-01 1.881508656266612511e-01 -1.588188252569018966e+00 -2.678376851480092080e-01 -2.212614823516341200e-01 -9.823613290703213652e-01 -3.332664639850680954e-01 -7.409995110256151207e-01 8.549631340855550210e-01 2.170404557651729460e-01 -3.143480666876645735e-01 -1.297360100423674556e+00 4.645308110030719195e-01 -7.829433900425477599e-01 -3.895047523699404768e-01 -4.834836069375499368e-01 -8.116660397170671892e-01 -4.012913648358313323e-01 -6.307495316648884520e-01 6.528684928875028159e-01 -1.216472951225072263e+00 -2.850525407735881797e-02 -4.187350313068837759e-01 -1.197869799421827697e+00 -1.154604146010128063e-01 -7.177110831683851666e-01 4.857675072033932340e-01 1.703180122621437698e-01 -4.074954665236958373e-01 -4.511747272358953009e-01 8.144812586542137245e-01 5.558791032216460204e-01 -1.674974604351499585e-01 3.795076752885226390e-01 -8.918124799262249214e-01 1.016685486871457877e+00 -1.657490645919286187e-01 -7.998299638192749583e-01 6.048277925218386031e-01 -9.856155899275969023e-01 -1.316910815941951980e-02 -1.446798195638726581e-01 -2.035045857112787460e-01 1.598808841406064385e+00 -2.464143805759356765e-01 -7.937737203119420160e-02 1.143293770798299969e+00
8.622493787943302790e-01 -4.057865817056510033e-03 -1.303736437372854606e+00 -6.960534920629514177e-01 -1.027551583715214933e+00 -9.599413268918307596e-01 -1.850554585353762216e-01 3.164490132118383814e-01 1.852580018186694710e-01 6.856833650518862067e-01 -1.153055939896683313e+00 -4.922792796763104661e-01 -1.313998296919423936e+00 9.452132743204011422e-02 -1.151703125611370115e+00 -6.952683259390931569e-01 4.322867758956568940e-01 3.380144482309901388e-01 -1.202841531716008827e+00 9.380252770101932258e-02 2.925004122297855669e-01 -9.248905994742409042e-01 5.259409218778904327e-01 -7.112548401321582003e-02 -3.540464424345866612e-01 7.579367932317947476e-01 -2.468284330405566274e-01 1.274698758699462697e+00 -4.288366640916184136e-01 -8.988204198245339782e-01 -4.546522205947763073e-02 2.474744255987573194e-01 6.678701310264724134e-01 -6.354207099429393102e-01 -1.085924856906386404e+00 2.389015725270486057e-01 -8.492372302923550942e-01 -2.969440612467089680e-01 5.009667908424975113e-01 -7.942336841834214400e-01 8.624052890564118390e-02 -1.262086801739389641e-01 7.316307592622181000e-01 -4.182770249634065185e-01 -1.681506945824659538e-01 2.201731001493307804e-01 -6.147831227317197555e-01 -3.323274782425583163e-01 1.457013068815154744e-01 1.491334896010590161e-01
5.192782981480229682e-02 -1.062662380340021917e+00 -1.053930696685198454e+00 -6.461834412027455121e-01 -2.857983548155739184e-01 5.858504960672495931e-01 9.169350657997939191e-02 4.081784109580657294e-01 1.965372607482495926e-01 -8.624012285310449499e-01 5.469223350909344639e-01 -7.318653933197870609e-01 -6.648621582389432350e-01 -1.811344322300452170e-01 8.596830629131579915e-01 -8.830049724205155659e-01 -1.692445296344404770e-01 -8.484158238074346325e-01 1.604571761788468331e-01 9.646524794839353989e-01 -8.323009965599140279e-04 -6.358406457424820024e-01 -1.861072423552696808e-01 2.674172904159435316e-01 6.013983833385336819e-01 3.067833091788834676e-01 -5.253884710760378107e-01 -1.561092115462362206e-01 1.926911986756082995e-01 6.981862364079205463e-01 3.459215903146206084e-01 -3.742508062121717161e-01 -7.530026885310530105e-01 -1.940760233665395629e-01 -5.896335717526370868e-01 -1.336063275134855122e+00 -1.418570483559856710e-01 1.016011500985461558e+00 2.196809070449154133e-01 -9.879612245157070038e-01 -6.426998338035541103e-01 3.271614383411176052e-01 -8.730072615313915207e-01 6.427980039732092421e-02 -1.886316646463582991e+00 -1.634524823220386835e-01 5.527921364981867175e-02 -8.569958720510210126e-01 6.968951142676624300e-02 6.389510521941832444e-01
5.948989720497864786e-01 -5.963132441687205576e-01 -6.540327152064132621e-01 8.650929039930390640e-01 4.975627280916271045e-01 -1.182923200209322172e-02 2.085073247637150295e-01 -2.962965161244250356e-01 7.530938070729081835e-02 8.693848808661006067e-02 1.241285059424916265e-01 -1.092610252578858798e+00 -1.030769031679236836e+00 -1.987932972335913206e-01 -6.676323304717135532e-01 -5.614645927890887095e-02 -3.067256573194037661e-01 -4.465611533890837676e-02 2.181669790135307430e-01 -5.022999057144516000e-01 -9.903853602022881508e-02 -3.863644792853032639e-01 -1.089521461420553505e+00 -1.348639531313960083e+00 -1.108707068402521978e+00 8.422202062843505699e-01 -1.010573934896501491e+00 -5.552549194470020044e-01 1.189147931492293919e+00 9.647031542552406691e-01 3.568027714746051238e-02 2.537252449985954450e-01 -7.503791443197389555e-01 -4.707383233681611823e-01 -4.208102282447638287e-01 -1.269289311566984546e+00 -1.644592850936503314e+00 -1.015365494662566759e+00 -1.011357266124060406e+00 1.115121614121199256e+00 -1.190031329675433014e+00 8.465067494477142018e-01 -2.184297214380087893e-01 -1.447494207703114988e-01 -2.289873528935838509e-01 8.079164077590174353e-02 -1.334154430943365943e+00 -3.629695854817403533e-01 -3.664397268255592532e-02 -2.851044434497077562e-01
-2.752347625340559323e-01 -3.042448710988039928e-01 5.562093190105220630e-01 5.425734027456086128e-01 -5.887380590066084718e-01 -2.723525359371441468e-01 -8.627042032401045502e-01 2.881067659609736972e-02 1.563626281775279958e-01 1.027127884869937363e-01 2.330750942334666453e-01 -6.918729180708549364e-01 -1.081136213923207696e-02 5.260631684016867649e-01 -3.251581976374737226e-01 -1.370431762308886858e-01 2.444438251819480712e-01 9.071832800158231846e-02 -3.094318281856252018e-01 -3.492173399374071119e-01 6.544300082321712342e-01 -5.501183823606495826e-01 4.234196760794883656e-03 -1.556098208957797491e+00 9.900624781321056833e-01 6.446679113835768193e-01 -1.305695823678481693e+00 -1.421078764217335588e-01 -4.975974938961585381e-01 -4.906058885347547305e-01 -1.180631088955518049e+00 -7.343514825240946564e-01 -5.212393867557314486e-01 -6.997221393318837634e-01 -8.584244066274175911e-01 -1.965609381848083814e-02 3.601908345515610343e-01 -7.907908477849684425e-01 -9.447464798946457742e-01 -3.542722564925193107e-01 1.744200012173122150e-01 -7.803684067931465629e-01 4.157353759646186253e-01 8.884818633657658449e-01 -1.499429466579789816e+00 -1.054761964162420851e+00 1.093012104764068626e+00 8.395696865769477490e-01 -5.687571373657922535e-01 -8.814635054204692510e-01
7.569858370858256746e-01 -5.461217064469298804e-02 -5.077601590893123795e-01 -1.261482877840525374e+00 -8.766344437003120715e-01 1.545193362024100125e-01 -6.078475801067116657e-02 -7.268643345543430723e-01 3.611220084766841171e-02 -2.808733467090417449e-02 -9.272977890696828540e-01 -4.650684579882446990e-01 -2.316422962186645840e-01 -5.785889376547678209e-01 1.180926620069919109e+00 3.831601785817712602e-01 -5.372200015908320525e-01 -4.075381128394275909e-01 9.277045906289750343e-01 -9.550852342410154350e-01 -1.577784150930546248e-01 -3.821349298982785747e-01 -7.000071062180212023e-01 2.535759200217906351e-01 -1.442572215172816197e+00 -9.537863752053175048e-01 -1.213563420284407668e+00 4.477774436088765020e-01 1.001383092406837649e+00 1.876724133706651754e-02 -2.799492376362482382e-01 -4.750060254858275433e-01 -5.137349997261837498e-01 1.037291208966553802e+00 5.378417816771939863e-01 5.266998391188476569e-01 -1.575597565511839826e-01 -5.147146983892292305e-01 -1.053626850565402562e-01 -9.807712038918895425e-01 7.704554675263683983e-01 -2.220994372578851461e+00 -1.204029631888384522e+00 8.377496000303931156e-01 7.079238521830542863e-02 1.216930059524776869e-01 -4.850216823666576582e-01 -3.411617167707476361e-01 7.237651242585578792e-01 5.247761036852420791e-01
1.009795315314128805e+00 -1.069341891661938382e+00 2.672306621803150484e-01 -1.109122355790275405e+00 -6.908368324071567645e-02 -1.230125644242997307e+00 -5.029988872822928059e-01 1.619215694038791675e-01 -1.971755169374245442e+00 2.959787532967187995e-01 1.085527022113586648e+00 -9.398300434507088630e-01 -7.614985441817677669e-01 -6.584052464699032825e-01 -3.396007082943033328e-01 -2.507820416930427454e-01 -8.709049192222471092e-01 -1.373742191986493943e-01 -8.111103414799274158e-02 -1.199601810218394737e-01 9.671554094563562520e-01 -2.557582930824072176e-01 -9.207565281515830424e-01 6.803429311507138699e-01 -1.186086010327858542e+00 1.148868869220234012e+00 2.727239881758886653e-01 -6.248105157146546240e-01 -1.063028666862481320e+00 -1.440709054907099773e+00 2.841897391634491954e-01 -1.393255984856767715e-01 -1.841920375342940286e-01 -7.551750095088076709e-01 4.865474072910200287e-01 4.819158568042375967e-01 3.843031167298650574e-01 -2.343990964019988799e-01 1.921201985389249245e-01 3.502259951014949357e-01 8.695029532387474891e-01 2.368722410563048608e-01 2.517892587832341045e-01 -1.016708776933588299e+00 -1.392261313948807810e+00 -6.853274408696343745e-01 -2.886101110362763733e-01 -7.482467672634087741e-01 -6.267745438647889245e-01 -5.432237201995180342e-01
-1.819107470363812817e+00 5.420571900542268118e-01 -7.559138619130302272e-01 -1.123292441803810160e+00 4.899874445904717213e-01 7.390307460532716810e-01 -5.924414233666033258e-01 -7.165541490088485344e-02 -9.225564867873283781e-01 4.954192203771293213e-02 -1.751367200701367199e+00 -8.980858818678292277e-01 9.428584637250047029e-01 1.882246764078006340e-01 -5.888140203770785286e-01 -1.147563842274929247e+00 5.143926860536822687e-01 1.292839614142216487e+00 -7.581908558002004028e-02 -3.142185206879913872e-01 -7.429862854424222895e-01 -1.137883254669829897e-01 -7.138673161653342758e-01 1.924058595588968093e-02 6.354410352461392630e-01 5.397593158951894399e-01 -2.817074777069776270e-01 -3.738279008500786094e-01 -2.316468298974812545e-01 -9.276775412309810065e-01 2.794349119473368837e-01 7.920954520912096841e-01 3.984307312357853736e-01 -6.382160914902574866e-01 7.919194718251481024e-01 2.680601202736992983e-01 -1.612869624930685919e-01 9.865131215213751581e-01 -1.540977701093551921e+00 -6.901069290432687575e-01 -1.061572708058111880e+00 -6.690658313697832593e-01 -1.029355788679521932e+00 -8.741187533826075828e-01 4.825861411235748966e-02 7.345107667417112296e-01 -1.637089416088959373e-02 -5.689681154257421047e-01 -3.111893087118289269e-01 -1.957398406237109700e-01
-8.151837132872872260e-01 -2.970388997502448336e-01 6.670905445810169088e-01 -1.284121346473552638e-01 -9.630803566830108409e-01 1.215021927340371455e-01 -1.706872904461030904e-01 -1.893514851828684620e+00 -3.271427175965000433e-01 -3.332814470280541785e-01 -1.647788439288017548e+00 -5.065063894356701679e-01 -4.136289500928931884e-01 8.664575893621050406e-01 3.652870163292439853e-01 3.510376947055146024e-01 5.435426728644046079e-01 -5.564246606594579481e-01 6.296825677800194088e-01 5.722376048642192625e-01 5.148865575679385520e-01 -6.539283935606611253e-01 9.109115323455116986e-01 -1.472396600435176006e-01 5.259559014153315504e-01 -1.153329641202734068e+00 4.990574295181051667e-01 3.631037311988428717e-01 -3.393081960238856776e-01 7.693584364680254861e-01 1.079063269503607730e-01 -5.977735720906592887e-01 1.107775407717557226e+00 5.406947949211644566e-01 -7.765416270708007662e-01 -1.289005895309790206e-01 -1.459806467899877447e+00 -2.245135027977778475e-01 -4.412819648766604930e-01 -2.164412229473501315e-01 -8.512447414423154335e-01 3.762606422656987748e-01 -2.609838271141382005e-01 -7.042096175598018259e-01 2.502413232796616982e-01 -8.989932918191285705e-01 9.283461843716060979e-01 -7.336132937263332154e-01 -2.758461721875093420e-01 -6.549498647036963161e-01
-5.651708514975395392e-01 5.129237495759923077e-02 5.658403522054548107e-01 -3.100280418634749902e-01 -6.560641912590352565e-01 5.625102519793561129e-01 -9.916638241218228567e-01 -2.975186942439810855e-01 3.600463307193385587e-01 6.690623319144326508e-01 -2.980089844135315191e-01 1.528672042501139638e-01 -4.411907096092208547e-01 6.077062007836800950e-01 4.505387782876693059e-01 -7.954745708560077011e-01 -7.414392983397983805e-01 2.038168077687734225e-01 -8.301106096367952825e-01 1.267083953903053395e+00 -1.735833173384480954e+00 -5.901668475291613758e-01 -1.244566087008589728e+00 -1.219541669442480103e+00 -1.028943892775301627e+00 -5.391855361651367584e-01 4.495746943320300670e-01 -3.071860435595975478e-02 7.659998581741871426e-01 4.288093444312212621e-01 2.725123501136710313e-01 -2.961667163628232680e-01 -3.431909618577465571e-01 9.648000082682599288e-02 4.789274735121960003e-01 1.952484511632749525e-02 -1.102723349983701695e+00 8.028540885180099895e-01 5.971463493132966871e-01 -6.678638297842905969e-01 6.861595452312455601e-01 2.304347692795334634e-01 -1.228376123248346441e-01 -6.662626048946185264e-01 -1.046638809892878497e+00 -1.758463698070340808e-01 -7.479540722160412658e-01 -6.005799066035783645e-02 -1.756445062531351020e-01 -5.448499799057995308e-01
-8.898163780404976242e-01 6.432541029684897271e-01 2.347597833858627581e-01 4.472786435148438100e-01 -5.824485809747158571e-01 -1.064278164938920801e+00 -1.171312452239435586e+00 7.858583364043110198e-01 6.928900644355731608e-02 -2.481555294552041102e-01 6.498580856267704986e-01 -1.781063779068743913e-01 -1.730598299482818403e+00 -3.193952897060638452e-01 -1.053237427363229450e+00 -3.179820123384292652e-01 6.582305813517264070e-01 -2.930763799536820202e-01 1.108472787995322673e+00 1.438643315013419799e-01 5.701175493098720182e-01 1.271068353237157604e-02 -1.750407573807368777e-01 3.255891888233427255e-03 -1.646828206462771782e-01 -1.558141475775251195e+00 1.505897499803965645e-01 -7.101835461903547309e-01 -7.982962697181653633e-01 -3.410700933954362024e-01 -1.417419974068721888e+00 6.668227143125046164e-01 -1.228343711104923769e-01 -6.808642702119470647e-01 -1.968413493296656824e-01 1.212568097178413906e-01 -3.457730604036081123e-01 4.737039624459762899e-01 3.984214694876311857e-01 1.696751746474381706e-01 -3.759950956585375037e-01 3.100587404989688795e-02 -1.081446436781538178e+00 -1.255799233400691106e+00 -1.004559449721075387e-01 1.861561140504738310e-01 -3.807733083029413851e-03 9.543211626105710041e-03 9.452279758907022877e-01 -1.884301937365181923e+00
-1.088426631574497927e+00 5.507759309549247195e-01 6.006560723736549257e-01 4.767034281891231462e-01 -1.121590489784182187e+00 -1.516552817916022866e-01 7.515904181038126630e-01 -4.775282293876512707e-01 -1.408995091334199090e+00 -4.467800742368737144e-01 -7.975008925361543044e-02 -5.200233127038940140e-01 -1.183775441144542029e+00 1.500935903163609468e-02 -6.532649673250502387e-01 -2.834140056643662947e-02 -9.632896832747813720e-01 -3.479539015956970571e-01 -4.847265995708479047e-01 -3.126431648238608418e-01 1.139898078400255754e-01 -8.402737108016097300e-01 3.039412735687447853e-01 6.174907701581685421e-02 -9.483282758824043146e-01 8.871761584515270860e-01 -2.314773854341824477e-01 3.482865518641260760e-02 -1.221268966664891709e+00 2.272590120402773473e-01 3.983229197856241188e-01 -1.516554534037440005e+00 -4.137266816161841998e-01 1.699121517984598650e-01 4.903183796652393345e-01 -2.690111785630905916e-01 -9.433208367303913544e-01 4.585632349285221898e-01 -7.812454415008592834e-01 -2.689881571876530653e-01 4.138498803279980764e-01 -8.547038623796202605e-01 8.034086324777716115e-01 -4.337601041239215194e-01 -2.176929681010374706e-01 2.206798327118190961e-01 -8.641607172793296376e-01 1.537043920644115547e+00 -4.858343480004528869e-01 6.357306739992168998e-01
4.189802691056818684e-01 1.505086594293313443e-02 -7.734491579321112198e-02 -1.407761475884282687e-01 -1.007507959968873656e+00 1.285189762226161270e-01 8.068792472690111683e-01 -3.392903823955419895e-01 -4.047747645087651502e-01 5.698718553720553137e-01 2.508758982115478209e-01 8.782132747582539478e-01 1.312089343334804648e-01 -8.639852370734978360e-01 1.073655887896881822e+00 -9.693033477527993602e-01 7.354687580563278315e-01 4.724729025212791589e-01 -4.145292075927476949e-01 -2.847023095566031392e-01 -8.238145540094841124e-01 -1.835624856663627680e-01 1.505941964133123090e+00 -1.480468669867237796e+00 -1.569056430690873416e+00 7.512302406682795641e-02 2.708135802977940099e-01 -3.483656887804501556e-01 -1.319982241817443391e+00 5.505605485461946280e-01 -2.934084050494597529e-01 -4.079725584872877509e-01 -5.725640657168298286e-01 -4.357883957849179035e-01 -1.411499803262920905e+00 2.578660878975655990e-01 1.568580386850218222e-01 -1.280667464691039870e+00 3.512192912254363808e-02 -5.892496730558279827e-01 -1.714362986304856840e+00 3.684608438158321619e-01 8.295271426051196162e-01 3.709842679441881508e-01 -6.218545252424969583e-01 -6.951372379475687646e-01 -9.607236975136490553e-01 1.083254405042168300e-01 -1.009894219797290660e+00 -5.045653432024317375e-01
6.386343729058451268e-01 -1.213078798155303728e+00 -1.224346359708360144e+00 -8.053843447380342191e-01 -2.157732549892293905e-01 2.478472892665974647e-01 -7.289957469837528015e-01 4.566639593162623578e-01 3.703264009569187110e-01 8.447824949481375079e-01 5.704529428843867489e-01 -9.898839339756033695e-01 -1.753497257172419999e-01 5.237478903544930953e-01 1.300640433379849914e-01 -1.808694932382277076e-01 -3.003826507968445081e-01 -1.412901957118700036e+00 2.052402008630307279e-02 -5.449419990472625930e-01 2.563818452974167550e-01 -4.302423491267066968e-02 -3.930036061844724427e-02 7.867985738719785946e-03 4.927984170602978109e-01 -8.377702117866079323e-01 7.848745143458824014e-01 -4.360344557747818373e-01 2.636435952641430491e-01 -9.869929130150458807e-01 -3.875929213597056333e-01 -9.374184438166404121e-01 6.455642255512221706e-01 1.346481806838168982e-01 -1.219472180271632622e+00 -5.672086507210689632e-01 -3.477240356055582016e-01 -6.259103980839808568e-01 -7.045725346158731028e-01 1.436354857410812313e-01 -5.277469928021580881e-01 -7.752736045341528381e-01 -4.632365342205673753e-01 -1.217456337636998009e+00 -1.904082679601310224e-01 -6.916099207727191001e-01 -6.408179516065929393e-01 1.063028251838944671e+00 -9.725693307111048236e-02 8.053237749603878726e-01
6.448470485556402343e-01 7.822571968262306275e-01 4.108955118621784863e-01 9.625680859087952512e-02 -4.948479047538446168e-02 -3.681947672365256108e-01 5.280021929424423277e-01 4.251572743922353848e-01 -8.137597678192710626e-01 4.478728418117021715e-01 6.818994541060707792e-01 4.608328674276911396e-01 8.003219350958858946e-01 -2.170136526612584660e-01 5.119199325507125531e-01 -5.985093318978123023e-01 -6.198171482990335601e-01 -3.640339072755792160e-01 -1.384754531999898619e+00 -5.740409730342460604e-01 -6.913740294708002887e-01 -2.962353221790128277e-01 -1.305816548828450774e+00 2.830541868246007620e-01 -1.450450955590784519e+00 -3.525566388051736277e-01 2.913819182715206013e-01 -4.255846357463968777e-01 -7.773360891971063946e-01 -1.185790535556310976e+00 -1.488694038097590822e+00 4.102728055205283331e-02 -2.194373780387194606e-01 1.002772772802460244e+00 -3.789368653576919432e-01 -4.922721123492652673e-01 6.870679380206963227e-01 1.032009404888165394e+00 -8.415152245933861241e-01 1.564826527287157057e-02 -8.741900302104649301e-01 -3.495687422295462587e-01 -1.500607588303120465e+00 -3.258478982421962322e-01 -6.057566498758895079e-01 -1.065375136099528941e+00 4.612177106053922393e-01 -4.468791735199227344e-01 4.053745824472624326e-01 -2.806060842417533729e-01
-8.982305158609652507e-01 -6.876161472662992158e-02 -7.395578437334275890e-01 -3.936886437881461087e-01 -3.877734169120360397e-01 -9.034682805975649544e-02 -2.466954195641812841e-01 -5.714698359776364534e-01 1.782532258678815595e-01 -1.475306600527822809e+00 1.027710056805047345e-01 1.539978274607183006e-01 6.132479433262751078e-02 -8.690584828700796960e-01 -4.942085215287665978e-01 -8.993208155780882951e-01 1.225132034759633060e+00 -6.255752330169263020e-01 -7.295538032051442079e-02 1.010779579507864456e+00 -1.180960583967042732e+00 -4.126650143435742768e-01 -3.754774570687074292e-02 3.479093936211088284e-02 -5.236912687113454146e-01 5.013396471662943110e-01 1.015544275521293782e+00 -6.489809104073130941e-01 7.574832022603286141e-01 -1.175078294330951900e+00 -1.250771985712074930e+00 6.415774999821786083e-03 2.983542828549022863e-01 -5.228222010114875751e-01 6.236875415583755800e-01 -6.899649875629813023e-01 -7.446643182637283642e-01 -3.426348550312391383e-01 1.105609288711957572e-01 6.414989369143423437e-01 1.340612977134205130e-01 -6.004061750263354341e-02 -6.501797053521326530e-01 2.593581950864663477e-01 -7.557460254527603727e-01 -9.841135551827604466e-01 7.403465782176642529e-01 9.699607906085401243e-01 -3.729108367778892208e-01 1.003263125600458272e+00
5.446209883557073805e-01 1.315395982589238344e-01 -2.729380550302124564e-01 5.317672477337975767e-01 4.243966713251968170e-01 4.196301251542123301e-01 3.567868193140875666e-01 2.413894120554296585e-01 -1.216256459905278975e+00 -6.867628670608597607e-01 -1.336012375495740478e+00 -6.904779567756653691e-01 6.710191239931495577e-02 -1.414178668295321961e-01 5.744034396986108515e-01 2.513184551854416582e-01 4.057740627065389849e-01 -1.193214273672882131e+00 -3.952134923782483766e-01 2.970127129008845457e-01 -1.348479950709964514e+00 -6.526247786980960974e-01 -5.681035378427977678e-01 -3.233874856155571909e-01 8.298700562464155217e-01 -8.161166901625848125e-01 -8.535161422597667968e-01 2.828525320189810843e-01 -9.580220977037245955e-01 3.170293472115096600e-01 -8.255151853832007891e-01 -3.649313844915695881e-01 -3.535298755394010728e-01 -1.311752754044166913e+00 -4.216725255853490673e-01 2.837550428690550630e-01 4.667242958717960910e-01 -8.182497666693563376e-01 7.411562477213808897e-01 2.542891125894203297e-01 5.212505683364595521e-01 -3.266312351294752281e-01 2.200471557947365209e-01 -8.646931870062299907e-01 1.101088093390357181e-01 -1.007049590312453891e+00 -7.732137686847508906e-01 -1.536614002375930599e-01 3.674741407908562602e-02 -9.390893805082973361e-03
