-2.708903259822627585e-01 -9.664095125960266153e-02 1.592451569446412252e-01 -4.098679996134840797e-01 1.310725199917887607e-01 3.221343902057541286e-01 4.865347074487403889e-01 -4.173479738513680148e-01 3.461884978831475945e-01 -4.107365428662491658e-01 -1.140795635463991708e-01 9.753446927904207975e-02 3.715254064175340654e-01 -1.908624925189719365e-02 -2.725587182678128606e-01 8.811748747941378079e-02 -4.553618252379049713e-01 4.740481934390903401e-02 -1.144660922215086640e-01 3.340975578539277097e-02 7.971158824049048852e-02 -2.027143543491602973e-01 1.470666873262387875e-01 -4.931335792600702872e-01 -5.199636528702473726e-01 -3.319820125658100585e-01 -4.706464936900251472e-01 -2.621424046415180009e-01 -2.490740340526660657e-01 2.047382402019712888e-01 1.916474021491891278e-01 5.115653777659548984e-01 -1.271765615589810251e-02 1.966082937714687395e-01 2.889991284656755477e-01 -1.385282074123748153e-01 -1.646827012143037283e-02 -4.075160999856303201e-02 1.736890544969061367e-01 -1.513782916416982760e-01 -4.252868995504247573e-01 -4.265198023211193012e-01 3.593362553014021188e-01 3.429332995165858544e-01 2.904000960748743809e-01 9.091042744940273923e-02 -1.725819271100855479e-01 -1.370538177214400133e-01 1.860943077463159956e-01 3.322384004318559847e-01 3.834410130918011195e-01 3.794452642782492058e-01 4.540013840495355640e-02 -2.743801747963250937e-01 1.478834136546860745e-01 -2.343745071049003481e-01 5.303286132489521548e-02 4.268668287157132424e-01 1.357860354863710539e-01 5.105887893663592081e-01 -1.227029945844231029e-01 -9.198365322009091627e-02 1.805660418960897684e-01 1.408258487140947590e-01 4.981483692813836184e-01 -1.231521470963298504e-01 5.869190226111934555e-03 -6.003824579912673404e-02 -1.131806711937199811e-01 -2.560961929929174707e-01 -2.578386438484475685e-01 1.487750162038581903e-01 4.777267728060814456e-01 -3.781830172356377417e-01 -5.854230562793302090e-02 1.174076067387224004e-01 -9.347910192312379463e-02 -3.645199314950327008e-01 -2.464142580800776916e-01 3.491680938698422665e-01 2.015555714804417031e-01 -1.704390420784190896e-01 4.215800755519655274e-01 3.915184311979111320e-01 -4.171959446649172176e-01 6.737633931394085285e-02 -1.784382763875070471e-02 1.514613136419288575e-01 -1.362969514901067325e-01 -3.678763670028725730e-01 3.387642565241630876e-01 1.941497132679220194e-01 -5.550841885559544553e-02 -2.975736132608898243e-01 3.440843841385805568e-01 -1.021528556026442963e-01 -1.136440785788007529e-01 -3.918815833002801119e-01 -1.580746647389680293e-02 -7.349747606296691549e-02 3.132260786001789254e-01 -4.540689979581381541e-01 -3.857542629028773984e-01 -2.133130046539350247e-02 2.549348988738895927e-01 5.602590905054177783e-01 1.708841517219180373e-01 -3.220822694806300124e-01 4.513374359977677108e-01 2.748414478604455091e-01 -2.638107287484713348e-01 -1.722744066931065632e-01 -1.677530768730474409e-01 2.565923130259543661e-01 3.715469654679774414e-01 -4.560260203886662977e-01 -3.075398197667110756e-01 9.074350863251708088e-02 3.122119996087850402e-01 6.048899417730125433e-02 6.496597063164552543e-02 1.430098590334200337e-01 -2.871468793080689252e-01 -3.012278198710925323e-02 -2.293437310308389654e-01 -4.598660663921606134e-02 2.603729779310138062e-02 -2.545700052475712294e-01 2.276433622053206929e-01 3.364744422357179854e-01 -1.062768523850043945e-02 1.478938932341641865e-01 4.261873928794224775e-01 4.448543871249265313e-01 3.036583451112709886e-01 1.418006201032413482e-01 4.277136553873076563e-01 2.794387129368544609e-01 1.836384535632271109e-01 4.695312236636473707e-02 2.657659862381850924e-01 -1.287193122492800643e-02 -3.491873168900014868e-01 -3.050556755340372850e-01 -4.476188038538148617e-01 -4.324304781536097986e-01 5.388215958632368817e-03 -1.778478604436996846e-01 4.383684323727866233e-02 -1.740589884539966159e-01 -4.644152443802127550e-01 2.825642938616328981e-01 2.147051768161781504e-01 4.443636353528860328e-01 2.851149085142251627e-01 4.556243735294354669e-01 3.418174324310480627e-01 3.438079662549019533e-01 -1.747008060120202044e-01 4.521700424745647151e-01 3.863862872819820993e-01 -4.190861973669071650e-01 -4.098743489485459635e-02 -1.392923484724838401e-01 4.377184791674075814e-01 -3.306688519831149087e-01 -1.848417378765104258e-01 -2.248171680331159106e-01 1.684494442393453528e-01 -6.514217441316563773e-02 -3.607388936979480376e-01 -2.477717287202970131e-01 -1.309788481298037321e-01 -8.272057255334240577e-02 2.619970856279726923e-01 -7.956181647116612743e-02 -1.750119167282240817e-01 5.850075717245321189e-02 4.177491945247028271e-01 4.643783144705347365e-01 2.047009963489212214e-01 -1.916834190849655561e-01 3.377340949174774121e-01 -1.330603288719757193e-01 -1.930785407525138220e-01 -2.966946883334063423e-01 2.371762081614422757e-01 4.087217062851893901e-01 2.452759154471707281e-01 9.747516350490514903e-02 -3.028790823324948311e-01 2.001850992257216688e-01 -4.606549880501573657e-01 5.174962576888452181e-01 2.800943435232081669e-01 -4.344766298571464680e-01 2.797407097990913805e-01 2.286202207618038065e-02 -4.745084146298177985e-01 1.357921490740143788e-02 -1.801842607553598777e-02 -2.485269779417029201e-01 -4.131238109206001319e-01 3.130126547419362359e-01 -3.541847916983477118e-01 -8.004167531932589175e-02 -2.788967781118713019e-01 -5.712259882194123395e-02 -1.892476413987714129e-02 -1.367017379728230342e-01 2.889858625509809653e-01 -1.323440775599992181e-01 -4.261111987503350407e-01 5.093163861156912997e-01 3.594980897671880560e-01 -4.893013542687855710e-01 2.165281997350767262e-01 4.095881240544338442e-01 3.049263598668957784e-02 -9.239234954925480692e-02 -2.042373402074239286e-01 4.177016129438971825e-01 -1.858228507670416779e-02 7.938612635077617330e-02 1.945644445705658476e-01 2.131626102267722700e-01 3.928319125238518006e-01 4.522381044322874161e-02 -1.127173328563016164e-01 4.873106764555591441e-01 9.925102293121085273e-02 3.947447802445127468e-02 -3.258901099339294172e-01 -3.404131422020414965e-02 -8.825866803959087070e-02 -3.661222855144586896e-01 -1.917856594790455782e-01 3.761041752679301388e-03 2.538362504574145362e-01 -1.707060600742732748e-01 4.265739978477123967e-02 2.210565575037532482e-01 2.641369619591469875e-01 -4.136099304293445744e-01 4.152657041357276646e-01 2.538280043808843756e-01 -9.136365150410546976e-02 -3.388157730260640821e-01 -3.664108301489938380e-01 -2.902836645298028095e-01 -2.306347532104881803e-01 4.520387676087614381e-01 4.950322019182923916e-01 2.088616608932190588e-01 3.677517673867041759e-01 3.975920977878318330e-01 2.934072776171302022e-01 2.996447972925678771e-01 -3.861357044502812808e-01 -3.939515829554655069e-01 1.824282464625737177e-02 -4.814798041554213537e-02 2.372646169862322740e-01 -1.647547220493394884e-03 2.540599923828904330e-02 -1.039055561441606379e-01 -2.911034330790950309e-01 -4.025279406035840897e-03 -3.841420872344585014e-02 -4.436366561295167488e-01 3.882968866356842907e-01 4.394465632871185079e-01 3.237137596514582660e-01 4.007772016119580116e-01 -1.276904178587189576e-01 2.880151895811642881e-01 -1.796150623104646737e-01 2.740398913203682119e-01 -2.304346293654069844e-01 2.454885378042148958e-01 1.716241210753269020e-01 3.161128272030372943e-01 -5.051025535919393405e-01 -3.670834957132975557e-02 -9.330516110621317472e-02 1.429646832890775765e-01 2.035398133237089069e-01 2.648369671705321990e-02 -1.557514993486108779e-01 -4.689252855831005373e-01 -4.429954944492979774e-01 -2.691404539070560431e-01 -4.849518174215634581e-01 3.395314802440585478e-01 -7.488540645812402641e-02 -3.298379960281335177e-01 6.368265406147811947e-02 -5.009947733063682129e-01 -1.442322283044896458e-01 -2.536749262598217980e-01 -3.034527409251297492e-01 2.790530861225682946e-01 -4.060698077285246899e-01 2.576514101163608905e-01 -4.692635815574426605e-02 1.525742805021786941e-01 1.547503064786874827e-01 3.735851367293512026e-02 -1.838728654871141233e-01 -3.137269470338228256e-03 -7.772964504861470947e-02 1.216619320468205062e-01 2.395195904399654019e-01 3.157551942623853525e-01 -2.437895216845986646e-02 -3.430384566342590258e-01 -2.285714112341596937e-01 -5.426700004352622564e-01 -5.077848789541579422e-02 3.415714685791745864e-02 1.741416188273589849e-01 1.945885444538684728e-01 -1.998365494668853659e-01 4.234401211889360916e-01 5.789555924831135680e-01 -6.065284404527904877e-02 -5.760974636895553891e-01 3.507922709108901027e-01 2.405625876006485808e-01 -4.198708317006592527e-01 1.005751993890412338e-01 -5.522967600821773182e-01 -3.080155039031399755e-01 1.551985892609543116e-01 2.820903304457332839e-01 -9.376036839085850894e-02 1.093804974652625578e-01 -6.291283325870270504e-01 3.975251132065126258e-01 -1.847713057991794694e-01 -1.152030459727958478e-01 -2.896061318261395900e-01 2.940001761683507242e-01 3.079223055975369161e-01 -2.293064484674016967e-01 4.341100812939398257e-02 3.949594180473870592e-02 3.755049286874999614e-01 8.685121478261088879e-02 3.822232855945384977e-01 3.032551651714228136e-01 2.520012746682283589e-01 3.521584542911611604e-01 -6.529623092661027139e-02 -2.468457573332886318e-02 -5.364697254163171281e-02 -3.999739323769697097e-01 -4.982269322302487757e-01 -1.453890861718531435e-01 4.658778577235369589e-01 -2.414839845772523697e-01 -3.612658950947725267e-02 2.399275622811846698e-01 -4.036046492776495381e-02 2.962963963234694353e-01 2.265276487315603590e-02 2.429166594997791973e-01 3.562790152826709744e-01 2.109192055117106168e-01 7.663393908820276268e-02 6.586859774067096995e-02 1.225828671849045620e-01 7.879821777804994765e-02 -2.428497861520127754e-02 2.294869862924107384e-01 3.207108592874330366e-02 -2.866816036076688112e-01 -3.032136025178457372e-01 9.128247744037419620e-02 -4.192623294247696530e-01 -3.841943076614259267e-01 6.523141970061160921e-02 -7.851332683925557610e-02 3.245092133374730126e-02 1.858393495707031107e-01 5.147854571838494930e-01 -2.167182859764655092e-02 -9.008860161402643119e-02 -4.432049019279893365e-01 -2.519787682033637344e-01 1.737105271108432547e-01 4.737151468982250813e-01 -2.871365608082070975e-01 -1.155199321691630782e-01 1.603698799831212163e-01 -4.363276199919391418e-01 -2.135508345339164060e-01 1.256426935508226372e-01 5.979259938975597377e-01 -3.593658835807127527e-01 -1.371137600726496653e-01 -2.366786255023843599e-01 -4.407946943269168139e-01 2.610097617497683098e-01 -4.594810630787665717e-01 -1.833542104819501917e-01 2.442948396750262985e-01 5.239325151560471072e-01 2.364261894658206409e-01 -2.447009548423028091e-01 -3.686993015328985934e-01 1.064701244403091634e-01 3.180529335823906179e-01 -3.652016920478007300e-01 1.698075331350619721e-01 -7.363555176278686887e-02 -6.274756089049887686e-01 -2.543652399339785264e-01 4.915005546465511799e-01 -1.051295097484996749e-01 3.873286769321189760e-01 -2.923515119641090232e-01 3.759732307346594915e-01 4.210075796578308105e-01 -1.955582094002217830e-01 -1.783496667113311784e-01 3.273333996926597877e-01 -1.708070300897164551e-01 2.477868783122085250e-01 1.827419402708468643e-01 2.787096559900383852e-01 -1.694191372226288850e-01 1.434295152115719896e-01 -4.098184270195066037e-01 1.296487563062790893e-01 -3.071775174289186894e-01 -3.176452932001815332e-01 -1.360122394331677864e-01 4.394122606241975260e-01 -2.598850126302378882e-01 -3.344315790652236386e-01 5.522439349237915351e-01 3.562336798668210847e-01 4.672025648160120226e-01 -3.324344374770304422e-01 3.577877434813948043e-01 -3.352680080124106343e-01 -1.981527070432248516e-02 -1.452681649754231780e-02 1.224157432310417903e-01 8.633785331076257452e-02 -3.499494385692772935e-01 -6.485427280755626245e-02 -1.115901993890271449e-01 -6.030784697460247479e-01 2.507606331781694897e-01 3.605239010068583827e-01 2.082829077355218272e-01 -3.393945123759491839e-02 4.495596596721815330e-01 -4.405024427821847000e-01 -1.359693621431761479e-01 1.581127437549628145e-01 -4.256801430854021961e-01 -4.016514195290477596e-01 -1.293173442651650573e-01 -3.707131388384850290e-02 3.702243376651821460e-01 -2.980892942337344809e-01 4.441920434798815043e-01 -4.973600492836464659e-01 -7.283619653397147009e-02 1.597267515051894182e-01 -2.967657219866347007e-01 -1.187768830836972017e-01 -3.016482120003317613e-01 3.579708871723764618e-01 6.073713643568442455e-01 2.166848233256877046e-02 3.145109853098664865e-01 9.026777467221903939e-02 7.713386585833795217e-02 2.828714550636278746e-01 1.049034398705362275e-01 6.898092709161814107e-02 -5.672583745542676414e-01 5.373884402043427322e-01 -2.894349662449417493e-01 4.705965275533716130e-01 -7.757876328621217399e-02 -1.245222879188880860e-01 2.615493935163321071e-01 3.042987495060211489e-01 -3.730980531096045327e-01 4.993960103927125860e-01 -1.090550071700997631e-01 -3.585962652440863874e-01 4.466215716648130885e-02 4.993021135120771503e-01 4.760263014166328244e-01 -1.766353685211689284e-01 4.021695681216167495e-01 2.927692369540523254e-01 3.602079115217965977e-01 -3.553720126406425539e-01 8.989574388537628635e-02 -2.563701168034580036e-01 -3.110445682277277468e-01 -3.838838734821613946e-02 -4.188340839154143236e-01 7.128760787312204625e-03 4.245714955924678180e-01 2.009272856295804266e-01 2.333426106364111796e-01 6.317164758709390426e-01 -4.229692991511490030e-01 2.340100968188590091e-01 -4.110019432658740812e-01 4.940711763808899176e-02 2.988846518493414317e-01 -3.731819122404684830e-01 -2.198146899192921222e-01 -6.401395597627697054e-01 2.994962889932467620e-01 -4.194512679722016690e-01 2.969965139512261154e-01 -2.820133875489736486e-01 3.159253937508351706e-01 3.726100195164693263e-01 -4.050361456539581795e-01 1.667196026860259528e-01 -8.320799980609622226e-02 6.857172476549338973e-03 -4.829714238460028897e-01 -1.933355520065237199e-01 2.752341987148104185e-01 4.233735524735440237e-01 5.953632851988593933e-01 2.165454798384023882e-01 1.419460085494104185e-01 -1.482597579497090534e-01 -3.180884720361000784e-01 -5.742830994208953932e-01 4.081925369471883780e-02 -4.256879576757874317e-01 -2.232666152586608999e-01 -3.507542585194962925e-02 -6.701122781357832237e-02 -1.773221977796263504e-01 5.711537435859940226e-01 3.389493270134153469e-01 1.141354187110350110e-01 -1.334308635862987980e-01 -7.014496467249113631e-02 -3.665137104894266029e-01 3.173766002576794976e-01 -1.097736968890858644e-01 5.719153374649121879e-01 1.203736901105249835e-01 -2.470416117803558853e-01 4.012677777206914015e-02 -4.075558551339833468e-01 1.784773617808310675e-01 -4.348187485428796628e-01 2.711405230869599198e-02 -1.772396069980035349e-01 -4.674313420390932561e-01 -4.448194007491086399e-01 -3.803304803050137628e-01 -7.111888021421895745e-02 1.914314540166946743e-01 -2.035002736260518030e-01 5.034571322800217991e-02 9.631283609757242126e-02 -2.842053304802339420e-01 2.551534474984714085e-01 1.074430317220895215e-01 1.611968545554141874e-01 3.688775507917386731e-01 -1.423425393842351894e-01 4.053355129787628575e-01 -7.064882724901143385e-02 -8.625534554818480026e-02 1.167638743433296183e-02 6.907645555960144346e-02 -4.414580563647590439e-01 -3.660816082963180285e-01 3.685665071591494590e-01 2.665126630368231941e-01 -1.014291022610207260e-02 3.534405753492824154e-01 -2.382692568312156922e-01 -3.614800198481931126e-01 2.056099154633183879e-01 -4.712357558745471353e-01 2.343993192497424369e-02 2.017037374241375525e-01 2.721922419826962591e-01 4.860657142311564649e-01 -2.496889501636961536e-02 1.820833225672530142e-01 2.952099081129015423e-01 -1.472706337691246925e-01 -4.392695299109184576e-02 -4.376435126567203016e-01 1.462724251559217592e-01 1.355063154321194119e-01 4.745103348956895561e-01 4.897869514939280355e-01 1.871828753559366398e-01 1.981720276124715185e-01 5.244880008458788767e-01 1.183173292632979240e-01 -1.485681741248456866e-01 8.625730376473086936e-02 -1.264022738845876070e-01 -5.387172164231899263e-01 -6.846216398648920232e-02 -6.948468677068725396e-02 2.791724831539739160e-01 -3.392422146034137498e-01 -2.068276525473695948e-01 2.463302752590967870e-01 1.465935002859969083e-01 -1.683323468361042352e-01 -4.941240922449728346e-01 -9.962659522494499501e-03 2.224618471399442410e-01 -1.165751705253767756e-01 2.014104480583640139e-02 1.602394849683675959e-01 -2.949613635453630089e-01 4.920915340941400262e-01 -4.149783831317432892e-01 -4.639482508995341759e-01 -2.430301325038818905e-01 -2.736858994189760308e-01 6.460053355681862897e-01 5.958382005205820064e-01 4.197942914305490270e-01 1.159559620121752010e-01 -3.302121233987047599e-01 1.754229907519059273e-01 -7.718737891329610634e-02 3.528722275688603305e-01 -2.035018863135787670e-01 -5.880437499328436401e-02 -9.256097128319773493e-02 1.513076140162600836e-01 -8.101351127988121181e-02 -3.739830456141181592e-01 -1.272609071858617213e-01 -2.664577558161661530e-01 -3.204872433509808882e-01 -3.480038253104870138e-01 3.001484896587093831e-01 -2.479835984883523858e-01 1.498068247068357894e-01 2.973877499266728286e-01 9.328126442120862616e-02 6.485786720343476863e-02 3.235853986250322167e-01 4.200823568358023619e-01 3.515068669442195093e-01 -1.895214549332529808e-01 -1.947500620756960066e-01 -5.637557837029070207e-01 1.779346126798390590e-03 2.555088321230360449e-01 3.283830595023409793e-01 -1.818527898590760750e-01 4.038820700899981020e-01 4.392716067986062178e-01 -4.154423104592520621e-01 1.032358373451285061e-01 -1.553107690022684506e-01 5.178553811288381103e-01 -1.651139731562844826e-01 -3.387354407730283068e-01 7.061039873996542704e-02 -1.679616646854274753e-01 -2.640312956260542077e-01 7.718062680001598619e-02 -3.383464900283752325e-02 6.198195735956780333e-02 1.526656708074662361e-01 2.286554551080355602e-01 3.151303848945056774e-01 -3.089704523605083519e-01 1.477959356784694540e-02 5.740042744450865042e-01 -1.506877572864717164e-02 2.890841710692695354e-01 -2.690047576944910521e-02 -5.394763732699272563e-01 -3.623805577243652265e-01 5.807161798874893588e-01 -2.171601064681971394e-01 3.071334563307117627e-01 3.728843415158760582e-02 3.895221318689384704e-01 2.371250870699773694e-01 2.567892384535694003e-02 6.684841011711811776e-01 -2.664010127764696589e-01 3.781243702939711682e-01 -5.219610880415421761e-01 -5.113988024256547194e-01 2.219017501363229894e-01 4.708511579135248315e-01 -3.412998323398072631e-01 -2.669380255328953067e-01 3.335474973725828240e-01 1.031539515595161988e-03 -4.816255080373348929e-01 -2.229515621152666771e-01 3.553192565657511404e-01 -3.259854269447088893e-01 2.254077855086943361e-01 4.561825784687407181e-01 5.343402132122591214e-02 -6.584808169659468746e-02 -5.907057759712291967e-01 5.495738244119670046e-01 -2.154226159817370645e-01 4.758484666550896192e-01 5.284581889006226968e-02 3.390620130565312751e-01 -2.646584266978850852e-01 1.003836306374112503e-01 4.309781809866709557e-01 -3.608418208230704249e-01 7.677932375347258642e-02 2.816532644313020084e-01 -2.877995671235058506e-01 3.604851550798831433e-02 1.568073562386323727e-01 3.860904164741489897e-01 1.157983584039642549e-01 3.515494486078254432e-01 -4.762181850845150777e-01 -6.328188851865558240e-01 -3.488172775276651705e-01 -3.828386451484316333e-01 2.430172086800614639e-01 -3.638724588613652111e-01 -3.468319620972363793e-01 3.604444284370663665e-01 -4.568112902569503864e-01 1.537689730619301309e-01 -2.717443120389557154e-01 -2.694381984068100477e-01 2.874470373249743971e-01 -6.107737873240699777e-02 -3.103583203978271809e-01 9.100170416301486820e-02 1.208013960603539633e-01 -3.226011797928042268e-01 -3.500657075007405084e-01 7.429167750014668836e-02 6.547298130811321504e-02 -4.834032812038202565e-01 -2.010558271626423366e-01 7.588527616442609924e-02 -2.945459761211340344e-01 -1.334568776427784084e-02 3.157364692260706818e-01 -4.589521280169217010e-01 -2.028554890636240227e-01 3.245278629846797269e-01 4.009604835276997514e-02 8.135062555025228404e-02 -2.468194145479418455e-01 3.013712208683814175e-01 2.285700802388041519e-01 -1.292778283393948846e-01 -2.332527044652504822e-01 4.573325977632677897e-01 -2.898793468675887053e-01 3.862591527450718876e-01 1.808379222995074587e-01 -1.167449953080382935e-01 -2.805349941114450574e-01 4.108928143966630864e-01 4.823289896781147168e-01 1.384271113862321767e-01 3.288457985284234386e-01 -1.411877641819828111e-01 1.803177289708416675e-01 -1.548179501159424598e-01 -2.927841452594880933e-01 -4.361044092966270824e-01 4.593171913340967638e-01 -1.528398047152734751e-01 -2.267453093316569301e-01 5.335769466768560676e-01 -3.794444745879897440e-01 -3.107255984468892396e-01 5.830526103474015231e-02 3.226315624173137220e-01
3.512339918205236167e-01 2.673685954046864377e-01 1.827890675955851918e-01 -2.540557213217529975e-02 -1.768227873822529883e-01 -3.633118328289131616e-01 -2.700421243216041822e-01 2.399499521755532050e-01 -3.661672140511298967e-01 -4.028917307889027799e-01 3.928245057352180436e-01 -2.607460509446558883e-02 4.182000075366109626e-01 3.268569333337865146e-01 1.414346347117115266e-01 4.658818876482935800e-01 4.177988949243741090e-01 -7.252123645367460070e-02 3.773613080768043471e-01 3.293008509250544003e-01 2.333433666508004101e-01 4.346127051092742444e-01 -2.339314262807344613e-01 -1.380838786851448230e-01 4.097106300445013116e-01 6.256343577905670861e-02 -2.929565529499479348e-01 8.798799585417122274e-03 -4.782745030519858775e-01 -8.411905285785438446e-02 2.015767922618687258e-01 1.339219950608809030e-02 -5.828560238766077317e-01 9.064100893498075462e-02 -1.849732897005036958e-01 -4.026865042736059164e-01 -8.231149112441131510e-02 -3.892612366726060369e-01 3.024130336784050521e-01 2.866449812001018449e-01 -3.304934793935277448e-01 5.216342161703779734e-01 3.377434494234072826e-01 -1.878059030040278854e-01 3.645848352692663275e-01 -2.793986125241820218e-01 -1.861167341229192640e-01 2.662677642658796140e-01 -3.917969346308917133e-01 1.499184790654099764e-01 -2.650693210040989678e-01 1.042113748632138015e-01 -4.794529088036879050e-01 5.211978764311946816e-02 4.401963377247260500e-01 7.979441531097189455e-02 2.675218175763104389e-01 -3.551221931073467730e-01 3.404625776075280164e-01 -3.054341592394482219e-01 3.830179746241120231e-01 1.786539325957736124e-01 -4.277737443729410782e-01 -5.744284794471974376e-01 -4.123848883113307440e-01 -3.665201104031006185e-01 -2.438798700320843338e-01 -3.305517402818068384e-01 -1.956378170699293872e-01 -4.203599954368766878e-01 1.283214961240548568e-01 4.254634169057278092e-01 2.182929250898320850e-01 -1.793429021546812385e-01 4.553341494418792768e-01 2.448543398196984799e-01 -4.636508250453131863e-01 -4.485192299395850957e-01 -3.845077022977210213e-01 -4.286772520728409086e-01 -4.157435023244563377e-01 4.041136734411581166e-01 -2.134785515772959497e-01 -2.999782734314461741e-01 -5.893718537586719597e-01 5.318176512079436646e-01 -1.780210326048020375e-01 2.346539302536778532e-02 -7.116248248013323785e-02 -9.280616917243590669e-02 -2.233060402914317233e-01 1.013432881233448102e-01 -2.559663906864577676e-01 1.237246364375619162e-01 -5.743425420512109428e-03 3.686971112633939951e-01 7.481745570683084878e-02 1.351054220158408037e-01 1.077332633950229962e-01 2.676009747673915862e-01 3.982445553987188358e-01 4.335758812420885677e-01 -5.114980416646525141e-01 -4.147031354158203093e-02 3.270960536373320182e-01 3.798054378440885448e-01 3.957984399115557217e-01 3.267756699261107900e-01 -3.778089464895522109e-01 -5.131233657385338987e-01 2.875204470793775169e-01 4.420894219711544171e-01 4.808306053782839817e-01 -1.624495645461269122e-01 4.875414426045653893e-01 -3.568845592344175310e-01 4.217157494361662429e-01 3.156928664856168965e-01 -2.834593845778388133e-02 -2.962312789535626045e-01 4.833097300506478677e-01 -3.709200769347938409e-01 -5.568651720803179384e-01 5.911898403647937450e-02 3.401956876568703603e-01 -2.980792030324729835e-01 5.428396004192610480e-01 3.828965953674443590e-01 -2.263651986787521553e-01 -6.155212265376079628e-02 -3.554810608764005786e-01 -2.081610603907380341e-01 3.429153467754814666e-01 3.384497619663347501e-01 4.208521495253577105e-01 7.864080956882756046e-02 2.073950051521819549e-01 -3.975251488098056063e-01 3.004112040433326927e-02 7.463607543264377808e-02 -1.366983458422132980e-01 2.894852439635935415e-01 -5.557737529239015206e-01 2.605589039903069004e-01 8.824465097781281075e-02 6.055993030170966351e-01 1.891804189537080530e-02 -5.575480928735147002e-01 -1.889259281293922677e-01 3.580113543286516653e-01 1.712113954834146023e-01 1.724327133012689695e-01 -3.279247271084849702e-01 2.548822614334805281e-01 3.457060871498928711e-01 -1.344804734070104979e-01 -1.585185281418854120e-01 2.961142427996927284e-01 -1.767165737338714793e-01 4.556480823119763435e-01 2.034527625212135538e-01 -2.342914570012723796e-01 3.658128808504740870e-01 -2.054431419627301414e-01 -2.244766746632975707e-01 -9.358625481159785209e-02 2.939800391384192468e-01 -1.625273623882699803e-01 2.145831780862459959e-01 -4.830114949407645630e-01 -3.398851947636538084e-01 -8.866436145114066358e-02 -4.926770422733766641e-01 -5.352638220416918585e-02 -1.723150184533190632e-01 1.231935973061677042e-01 -3.487528872656767143e-01 -1.007954907279468570e-01 -1.929517370358009021e-01 2.142131602813136804e-01 2.397723035510203327e-01 2.317664077591782834e-01 -2.953151329433834626e-01 -3.658415313664112878e-01 -3.727886551918446201e-01 2.099650525841453286e-01 -5.418820143186645621e-01 1.451177005823789945e-01 -3.413921667921574477e-01 3.589753494276420320e-01 -2.581794396994184781e-01 1.286905386239144689e-01 1.601351438701751895e-01 5.245110337571408099e-01 -1.276580207782763710e-01 -3.592439615464781966e-01 -1.886215692760944140e-01 -2.801224142026612629e-01 -4.516199593587011396e-01 1.983018774623324376e-01 -2.922268742690800059e-01 -4.518777795629749794e-01 -3.534820397073353271e-01 5.066596621557600821e-01 4.295519015861523626e-01 7.657282610455148908e-02 -2.836817771333099633e-02 -5.050435580295450366e-01 -3.213529950107608668e-01 1.477156925747536986e-01 -3.983498870522259039e-01 -2.723206609061467609e-01 -1.524141904116301655e-02 -3.968751715772864119e-01 -4.105209068999540190e-01 7.316213588004787105e-02 -4.293983712488223525e-01 -2.589343426272935900e-01 4.095364215398084040e-01 2.023073584193325891e-01 4.759214004263668252e-01 1.146817060143450612e-01 -1.081092070109877651e-01 1.001697114037326634e-02 -3.925208013532159868e-01 -3.247281711321552411e-01 3.431027583459459462e-01 6.085119245885086542e-02 4.586017073869712579e-01 -1.046311339771523186e-01 9.514882959187416500e-02 -3.857647712551899866e-01 4.141669763507352942e-01 3.606659850792778843e-01 3.993804994725926316e-01 4.598933575882108715e-01 -3.834836011178348603e-01 1.928297642405086276e-01 1.913556820424722471e-01 1.221361567295696365e-01 -6.588149863268676770e-03 2.540191511125556856e-01 3.908684789063613940e-01 -1.532541973582404182e-01 1.548550023277909561e-02 3.301617150578855520e-01 5.344323189577796646e-02 -4.043686225117495980e-01 2.812395961369632547e-01 -4.122915696343897735e-02 -3.361079106206359413e-01 2.870517506331740631e-01 2.532881794602257278e-02 -3.479657238441558054e-01 -2.337526366132655076e-01 -5.958645560892236737e-02 2.845438479207360039e-01 1.570740118090444282e-01 -4.352102731741226416e-01 1.225435086430146508e-01 -1.145838245032729796e-01 -3.100550103092060139e-01 -4.531535718439687610e-01 1.827854979006872105e-01 4.120365665388073945e-02 -1.758767457105499810e-01 5.087175460645897429e-01 2.783778216477428846e-01 2.108585121081912872e-01 4.766481961205749039e-03 2.202830132405033947e-01 -6.396905944569337976e-02 4.546434282587041853e-01 3.339744765711225027e-01 -1.714792741173763041e-02 -1.680186966008501981e-01 -2.578041572073953014e-01 3.969703220586022208e-01 -1.467966385885258740e-01 1.994815520147040222e-01 -3.647877176633565477e-01 -3.783252649853355853e-01 -2.038797261710458275e-01 -1.966697667905878966e-01 -2.127052447422108361e-01 1.971450527091418714e-01 1.753399471760724859e-02 -5.001526138102563301e-01 -3.989529899821812609e-01 -2.772685635769458479e-01 -2.556922340073661259e-01 -5.215727778309755536e-01 4.047720846643644843e-01 1.131764357880867163e-02 3.123986616536111524e-02 3.648392018226318534e-01 -3.509266049598157022e-01 4.020363595175426852e-01 -2.325503309318000533e-01 5.058897300799963803e-02 2.551644330957437146e-01 -3.577894436526187216e-01 -3.035979173312536306e-01 2.745958741462972141e-01 -2.156122477682417549e-01 -4.799513790958594150e-02 1.265945273669268900e-01 5.229280662712794403e-02 2.271323300466224770e-01 2.303796023196594267e-01 -4.203855246081696917e-01 3.950828362908740538e-02 1.467620012534454066e-01 8.420727563833732554e-03 1.261077478343874125e-01 -2.443600750875385696e-01 3.400612970960667503e-01 2.683636421160096597e-01 3.841550975396494927e-01 -3.364068834794117779e-01 -1.699091670276048904e-01 1.786639555851293470e-01 -1.262213309283910512e-01 -7.551489765956505285e-02 -9.207800514514467849e-03 8.164907447488450876e-02 -3.971662776445177290e-01 -1.778617841940778044e-01 -2.944775255778129819e-01 -2.862805097356674877e-01 -3.621900726014075644e-01 -3.500497635651597661e-01 -1.808671250692019949e-01 -1.127918119926967361e-01 -1.896813176004003010e-01 -2.691580324920421208e-01 -2.215724714722414612e-01 7.198744683329062755e-02 5.052636315520030452e-01 -3.222572988853673603e-01 1.792222826394878135e-02 1.828600000319366981e-01 1.044241771487517956e-01 4.664104176026113990e-02 -2.497346832244411730e-01 -2.759489077479508889e-01 2.948620120473987583e-01 -2.016990276555587214e-01 -4.155182936419791334e-02 2.917035147264958606e-01 -4.347831304528549379e-01 -3.406111414212920768e-02 3.527760579790659712e-01 1.798790228114512946e-01 2.407840187812017030e-01 -1.158308220701345370e-01 -2.457103945464832739e-01 4.152833086880987623e-01 3.355477651828701058e-01 3.798084140512917872e-01 1.033674627203073348e-01 -2.768805967598219619e-01 7.588999616145983285e-02 -5.730436131341999639e-02 -3.174284461075213559e-01 -1.690759443332567058e-01 -3.053382293214961796e-01 -4.617982535537102917e-01 -3.379459356865079367e-01 -7.806043347545371658e-02 3.050971508476753580e-01 2.363838936587421002e-01 -2.423489843701467084e-01 1.813950526521121709e-01 -2.751121075644076264e-01 3.548621575395768946e-01 -1.786629488337818927e-01 3.479775049878777726e-02 -7.414456757167438294e-02 -3.209106988102473079e-01 -5.153199949611182440e-01 1.767473303122716125e-02 -1.885856561362306560e-01 -1.660655471769724167e-01 -7.422628151353130588e-02 8.864850388917949742e-02 -1.750076470372126936e-01 -2.287115003898794741e-01 -1.060290072245093362e-01 -1.895403473013792042e-02 1.453850237898007547e-01 -4.535811442293092854e-01 -2.624870263364533773e-01 -1.340877075890486159e-01 -1.092336225916579751e-01 7.683939827504666920e-02 -3.087618624909700248e-03 3.866788250433040863e-01 2.300682191444809732e-01 3.179766553894283199e-01 9.032649598412809122e-02 2.129968388262648282e-01 -1.642934380026658259e-01 1.984814448688524968e-01 4.544089940056413035e-02 -3.555623883348841274e-01 2.754588849516989221e-02 -2.770170322630922666e-01 4.512768194596722404e-01 2.738718090651734438e-02 4.501496430213401956e-01 1.287310597036050441e-01 -2.030220687720321257e-02 -4.810483211611294996e-01 -1.699427989424980301e-01 5.809394343761505736e-02 2.080135391159393943e-01 -1.965318647501512750e-02 -7.298804396117622439e-02 1.724592043003009834e-01 1.356818080409840088e-01 1.817762656153853670e-02 4.355074731407196920e-01 -3.093226927799798687e-01 -5.189492931617277760e-01 2.211175267083409501e-01 -3.530692136848107010e-01 8.922113861899605425e-02 3.498295934810637942e-01 -1.022197603547632810e-01 2.441697115183748823e-01 -4.267221601015516175e-01 -3.167492253813131708e-01 2.442227042262913872e-01 -3.272585158752192580e-01 1.921433577245345858e-01 3.551959163551569598e-01 4.633794568719676876e-01 -5.118335669343768712e-01 -2.891061264329528591e-01 -8.937228216779562195e-02 6.877519867502343565e-02 1.980366481946936874e-01 -4.489475571637953077e-01 4.205773641108048189e-01 3.784789755728524274e-01 3.773667939823741602e-01 1.998276558241681225e-02 1.357825884598904687e-01 1.006826342907096994e-01 1.264368988758034495e-01 -2.187681578240485147e-01 -3.272276462420014576e-01 1.743417669578345153e-01 5.971923298409579361e-01 2.711793385936533407e-01 -3.571766901071334321e-01 1.460177175779792946e-01 2.473031138016037744e-01 -4.949255143439889593e-01 3.246883389070715498e-01 2.565950792142049353e-01 -2.591359902531650827e-01 -2.228936556633150379e-01 -4.072967302508404552e-01 5.192298188665264158e-01 4.046232469783867525e-01 4.226088928514228071e-02 -3.947009805551813799e-01 2.203455617482692475e-01 -1.435861822914215602e-01 3.934529768772442315e-01 -1.729413927019344821e-01 1.085889598950461471e-01 1.563841696738940690e-01 5.107685486778926753e-01 1.047151944267189355e-01 2.017665035321045131e-02 3.200038418009634733e-01 4.567460137004433762e-01 2.787204698631152722e-01 5.857000167919487188e-01 -7.487293299080055586e-02 4.128089822418876120e-01 -1.045846673799021714e-01 -1.144370537599018883e-01 4.609093772343297174e-02 5.310766514675538952e-01 4.138126792285794220e-02 4.348913425047893910e-01 1.802886645766229590e-01 3.546042672019399933e-01 7.245498975796742409e-03 -2.950731823922447816e-01 -1.243477737510576830e-01 5.705514017048973763e-01 2.229560196241024139e-01 4.425476908233281215e-01 8.948907735232476679e-02 -1.366110604086211433e-01 -9.422386370289295709e-02 -1.299776365453955973e-01 -4.040791003748152588e-01 -2.399155489142087705e-01 -9.577368583105734523e-02 -2.858436032561975648e-01 -2.858043648382447288e-01 2.546322420454947277e-01 4.351315540051949315e-01 -1.067931593838238880e-01 2.903415105499368987e-01 -1.586072490721577299e-01 -2.337541592056392725e-02 -1.560693690153564517e-01 4.374983468664696562e-01 2.723115023613275065e-01 2.482549297375796771e-01 4.076676776615294484e-01 2.750536507558146715e-01 -3.054574044063889104e-01 -4.129426629876632449e-01 -2.630020641418102101e-01 6.662071790080874301e-02 2.971482062442674654e-01 -2.796675712465687136e-01 1.664491553071625884e-01 4.368842670369844083e-01 -3.242587529295662407e-01 5.480699330907052857e-01 4.632863673847471553e-01 1.320903978491992925e-01 2.940236758784413595e-01 1.163146819087514244e-01 -8.438697240618796280e-02 -1.972012719107939932e-02 9.712062101494389754e-02 3.042325339412596530e-01 -6.281092823993308927e-02 4.859695652430837121e-02 4.149676692395825039e-01 -1.974168401704404219e-02 1.172745191597018427e-01 -8.121532757914551315e-02 3.052201639425223267e-01 -1.063297064055623159e-01 1.362034215325427788e-01 1.665504774748160222e-01 4.830625390509407091e-01 -3.038803778268515110e-01 1.176119141388154155e-01 -6.809230580435871039e-02 5.974213170721084237e-02 1.849583200490529378e-01 4.857990180433062744e-01 3.918639346888949104e-01 -1.122526020664225965e-02 4.633610498956579060e-01 -3.667869592588612337e-01 2.539967414158013637e-01 -8.709559121721080488e-02 1.930980078229360408e-01 -2.723854646885635611e-01 4.058463030815675360e-02 1.042220050681322424e-01 -3.434231904668548774e-01 4.332562122754421985e-01 4.918422625615096466e-01 -3.840295904596394139e-01 3.817499576989160509e-02 -1.418758691130133920e-01 1.125226020296558743e-01 3.872945458691500614e-02 4.135067358646346003e-01 3.283072422465586615e-01 3.215171383256257287e-01 -7.889677347324761114e-02 -1.144749797663145718e-01 3.307522779566094417e-01 -2.947278948590522640e-01 -1.957911840126895231e-01 -1.600280135548623472e-01 -3.674729922069991384e-01 -3.619367762913035524e-01 2.013841835623015122e-02 1.574724111452301678e-01 -1.264194432846932892e-01 -4.004666828323335537e-01 4.350472489544861543e-01 -2.129178765338659018e-01 6.960102018882910468e-02 -7.258999067319475695e-02 -7.329398407559717388e-02 -3.290115538669479145e-01 3.689434207119005743e-02 4.245392252256213750e-02 2.240668761069839476e-01 2.214714040129024675e-01 4.568033847173540440e-01 9.031692283348467798e-02 2.021729465711080143e-01 2.185084849968385867e-01 4.010074269161649774e-01 4.727785204575259970e-01 -1.547954231022682092e-01 4.784771026085209988e-01 1.421702709534281572e-01 -1.512411245992892062e-01 1.634030503440788151e-01 -9.094335069575072705e-02 5.228606067245564759e-01 4.076141314465262511e-01 -1.348570443490952099e-02 -1.339861255017811559e-01 -1.427798512056839830e-01 3.138504519926189618e-01 1.347184173012753172e-01 -7.331916320995474079e-02 -1.424644443961664911e-02 1.962322494390253413e-02 -1.981680336285456256e-01 1.857059441975549008e-01 -2.166927496498728400e-01 4.415312807451728938e-01 4.186036897933388401e-01 3.054956021759531182e-01 5.781922290909733558e-02 -5.028782541244080501e-02 1.115844563547629675e-01 -4.444031623801222852e-01 -2.088247986959335112e-01 -3.668483670085661008e-01 3.547207247838150834e-02 1.186808768058659558e-03 -1.388653258396419649e-02 -2.179574162137227489e-01 -8.669053053669600883e-02 1.298429602006914707e-01 -4.362709164863955436e-01 -3.364038289583190511e-01 3.734823761968025235e-01 9.903581398716147788e-02 2.160652118292234469e-01 -5.825818451846718343e-02 3.727137709154041412e-01 -3.395972119583857696e-01 1.621649966914934238e-01 3.825547436318338934e-01 -4.360747082624921722e-01 -2.413161893192576971e-02 -1.885425799744964992e-01 -5.005088250203481026e-01 -2.766706607142759844e-01 -4.141859863860434254e-01 3.893365795037792010e-01 -1.159768853336779482e-01 3.078393601001873092e-01 7.042985125556840142e-02 -2.529547160580546961e-01 4.918567995117484881e-01 -2.226091529678173378e-02 -4.302170602866873805e-01 1.930180185257673042e-01 -3.217111215539584235e-01 -3.696181549151722479e-01 -3.093494850309141952e-01 3.737527734262061641e-01 3.453783493188037901e-01 -3.292888085745295790e-01 -1.906436447275230150e-01 -8.024978918621095136e-02 6.107426990380703663e-02 1.079407755522688028e-01 2.088264770964776140e-01 5.230891326488755766e-01 4.652383737419524268e-01 2.005153944713078118e-01 1.675067072104539645e-01 2.668307741620288831e-01 4.349460262681262290e-01 -3.146711735444743807e-01 -4.549740091795899666e-01 -1.834809178069302937e-01 8.185882196306611125e-02 -2.782745759039058631e-01 4.447138727215479981e-01 -3.242368533561525157e-02 -3.151058952510952249e-01 4.757021014446061735e-01 1.770097344913079962e-01 4.920416743437300289e-01 -2.873777229561541580e-01 -4.940416434839567938e-01 -3.203842534992989433e-01 4.989005638427254641e-01 5.429252699388652514e-01 1.655753711352936364e-01 -2.235426165454727498e-01 -2.260205118626996620e-02 -1.007452838243930726e-01 1.410023466297756489e-01 4.429256562038767081e-02 4.678637806863787385e-01 -5.589996514374077040e-03 -8.236867205395426161e-02 -2.847998201426201192e-01 -3.362008020091551697e-02 -1.580986235275861906e-01 -1.208471070517443680e-01 -1.486355212347556243e-01 2.122074900619593252e-01 8.407417624598467754e-02 -3.434862072003758704e-01 -9.580565261688933631e-02 3.699133366920774879e-01 -1.227860041163483240e-01 -3.448097642674718410e-01 1.465018531197875840e-01 -2.225721169701165014e-01 3.738511692030860312e-01 2.495403964577212197e-01 -1.171568004661431295e-01 1.202841070763450149e-01 4.563454935716741712e-02 -2.074822386769709093e-01 -2.749879831242711681e-02 1.865718829931771738e-01 -2.572983450270013295e-01 -1.326214379514403241e-01 1.831278580443938264e-01 2.545014569318546083e-01 -4.008255124273096826e-02 -4.499259785387839661e-01 3.067050114900364277e-01 3.347633312640945213e-01 1.676087844950390204e-01 -2.635713215860713277e-01 -1.647004727898957743e-01 5.516658093073205649e-01 3.183430994744372855e-01 -4.083951100676730395e-01 -4.517555455982467660e-01 5.365908885093918085e-02 4.723190235236976973e-03 4.034603029602391033e-01 -2.306246819499269685e-01 3.732617175929858200e-01 -4.317845067325937203e-01 1.043253917062621633e-01 -2.400882692524805850e-01 1.151755870404162913e-01 8.898546131866247322e-02 -3.450704780719411335e-01 2.010778635864202968e-01 1.321105698275450435e-01 -9.226893896528523542e-02 2.592213681030487993e-01 -4.242514936533074432e-01 3.199834992778816667e-01 -3.258858997347869324e-01 -2.133607557238391128e-01 3.507697421702097862e-01 -4.402600481774628788e-02 1.210378501926336753e-01 -3.319404526638141673e-01 8.263260121858888307e-02 1.758102784141123143e-01 4.116463190925892524e-01 1.712583381422727244e-02 -3.197479554210416186e-01 1.969749226794871577e-01 -4.858554286824350310e-01 -4.817103170163604120e-01 -9.342736807132587251e-02 3.742504454224891419e-01 2.781379788885499776e-02 4.692323480287343695e-01 -1.662399394583674583e-01 -6.465084049649415243e-02 3.216265722215250755e-01 1.563271524183481309e-01 -1.638694306104705456e-01 8.704370124515878326e-02 3.411565814676653652e-01 3.927359771485246509e-01 4.408594502516848812e-01 4.025099976074055230e-01 4.475976211232352564e-01 4.789478590933301527e-01 -3.069574452209793414e-01 -2.837324435494404384e-01 -3.936451892627001459e-01 3.602377795586925169e-01 2.307802471131980837e-01 5.376700388843784484e-02 1.669791686280856780e-01 5.261855792226699351e-03 4.704909164012203715e-01 3.912085336802727520e-01 -3.083607377812990213e-01 -3.218470848518012462e-01
-2.466915569487128645e-01 2.663078245430088309e-01 -1.613115941543735998e-01 5.088252163926922922e-01 -1.283067831181850249e-01 9.510555796654782124e-02 -1.703063969296873537e-01 -5.159940860698522536e-02 -3.989143137483483481e-01 7.075873203772992115e-02 -2.189004772213775929e-01 -4.486406063238374681e-03 2.035571695305826156e-01 -3.102806616211196619e-02 3.664663222461000958e-01 -4.578429650508250015e-01 -1.989914912326095353e-01 2.795479576012544487e-01 -2.327128380603721292e-01 4.643013471121454350e-01 3.187140046839184171e-01 -1.831490614158891861e-01 2.470983223978154564e-01 1.708194213855925292e-01 5.512610143909838500e-01 2.308548592478555650e-01 -3.235530908791307003e-01 -3.343480305546257525e-01 -8.862611348005919321e-02 -2.604646149343337602e-01 -9.119467967333862168e-02 -1.508589379718813239e-01 6.129697953568440799e-02 3.421652184202437219e-01 3.342524945675039438e-01 4.399765028997310035e-01 8.178117636926550416e-02 -1.962883171552376738e-01 -3.702347635182050012e-01 4.820771789633541277e-02 1.091767304692186774e-01 2.370479345226457757e-01 4.409834567416684448e-01 1.204247185836864048e-01 2.572371378347101389e-01 -2.188239679377315672e-01 -1.168093068250636718e-01 -3.018031178725890662e-01 -3.242442445641764981e-01 1.502062393686024455e-01 -2.272146461989181174e-02 3.117106393957397997e-02 1.351012695061144797e-01 -5.503695223132207964e-02 -5.553712787933798301e-02 -4.379208773771762209e-01 -8.189477380769857873e-02 -2.066356972367326683e-01 -3.928027576153185763e-01 -1.274039557133145040e-01 1.000994745142017445e-01 -8.035111774258220374e-02 -2.221682116981863186e-01 3.258796317393611308e-01 -2.057973998096337964e-02 4.562636732382489013e-01 9.110592355941361797e-02 2.865452898606955789e-02 -2.704192667278621509e-01 3.172849620557997574e-01 -4.311646581971793069e-01 1.776519591983481972e-01 4.702742069788887758e-01 2.247674713246030354e-01 -3.874049905027051599e-01 -3.401018167154957195e-01 -4.517482982677114012e-01 1.435271581571349875e-01 4.664561813727328698e-01 2.749707687944113466e-01 -2.038412986037185792e-01 -4.980914482474697591e-01 4.282329592942057950e-01 -5.223700609984361504e-02 -1.880122983658940872e-01 1.517266982016380328e-01 -3.844319440200665017e-02 -2.144740821827337829e-01 5.189538602720851490e-02 -4.824022962596028474e-01 3.558332693079872822e-02 -1.825129820892194554e-01 2.104595908638909052e-01 -4.760787056203137912e-01 5.167475943460678178e-02 -6.670380217443860893e-02 -2.833483363721670326e-02 3.059849222899745369e-01 -3.650009359729473601e-01 4.957650014812498007e-01 -2.775246931161604036e-01 -9.484707070121663197e-02 -1.764072971280596092e-01 3.068788199007232986e-01 -1.432068353267506450e-02 7.978381583032529258e-04 -3.274301390748013962e-01 -4.073275937165427019e-01 -4.143119593423740810e-01 2.103737934484034219e-02 -1.497171913644543828e-01 -1.297826113126601122e-01 -1.846887092170135247e-01 4.721156172609075052e-01 3.637399327868167109e-01 2.297176420598629198e-01 -3.869975507189746811e-01 3.754921416884282603e-01 -2.165682654135791252e-01 -4.545890290920272248e-02 4.680849760997550235e-01 -3.481713466634852455e-02 4.572430649994870810e-01 1.882310861721572248e-01 1.943728495359414721e-01 2.868310514796291177e-01 3.408747907245542885e-01 -6.690371089372926239e-02 2.451440253332669572e-01 1.425037899555662013e-01 3.012452971489054665e-01 -7.710305868996644718e-02 4.391426874736579777e-01 1.125393166698765435e-01 4.238344717739958023e-01 -2.521760229907554426e-02 -2.127518317531146008e-01 -2.408791468375592326e-01 3.971383303795150144e-01 -1.762961458915351109e-01 4.505278029060313383e-01 -1.960666504854793324e-01 1.811631123462596193e-01 -1.983581836423905509e-01 -4.617508220611265535e-01 8.482442980275373134e-02 1.463204709004692627e-01 1.689008383442682226e-01 -3.993682286986426772e-02 -1.934353544894790167e-01 -1.305279018028090710e-01 -3.647673794035976025e-01 5.481190759630973908e-01 -2.520881805076772286e-01 -4.268850846485874317e-01 3.772582286614434288e-01 -5.793823996716807034e-01 -3.182085142264217681e-01 -2.887497238200695815e-01 -4.297893313405274918e-01 3.822416103248870711e-01 1.241972925998915678e-01 -2.650526601520843406e-01 5.310975124199136532e-01 -1.524382275099439576e-01 2.148150954218302766e-01 2.464186351101500805e-01 2.816010330255851526e-02 2.311514340160381320e-01 -9.886712247556107835e-02 7.010722072766810420e-02 4.480152311202519333e-01 3.725007728043884803e-01 -1.990296713107443660e-01 -4.259381441079129194e-01 -4.501945622350544407e-01 -4.075081982325131635e-01 -1.063567710565023113e-06 -1.542604722646497284e-01 -4.162251892287858676e-03 6.277153354895637083e-02 4.142633500928381562e-01 2.312765009894672819e-01 -2.572978743907021193e-01 -4.820274032302975797e-01 1.701776950050146175e-01 -2.018682596713057553e-01 -5.311250452709385117e-01 -3.338110164059376883e-01 -1.633659525271654034e-01 1.084117399079720205e-02 1.394228194979924562e-01 -2.292625425925672034e-01 4.641293081738063209e-01 1.234858286860760213e-01 -8.489662530968752896e-02 4.279882932829539022e-01 1.543545008719548473e-01 3.242124607009096993e-01 3.718737109350427339e-01 -1.242966626583152795e-01 4.109562253144275479e-01 1.883761521695561103e-01 3.056851337681230629e-01 -1.816951930896196776e-01 8.375853792951566332e-03 9.258331005915663992e-02 -2.225369175839232022e-02 4.654477043324510843e-01 -3.485454589696747041e-01 -2.040851010563206336e-01 3.282181081250116761e-01 1.472520554432430739e-01 3.116427697209528946e-01 1.619388161073444521e-01 -3.576005148416430135e-01 1.826400657342238387e-01 9.988290861435394907e-02 2.611781855312993450e-01 -3.532276000365731639e-01 2.831780521012276508e-01 -1.764387715002919133e-01 -4.434581377858549667e-01 -4.198465630827873940e-01 2.908110121198467235e-01 2.659087151282825134e-01 3.323447707661736361e-01 -5.666608042731497985e-01 3.270804496624491464e-01 3.327900349690417203e-02 -2.803604042196671253e-01 -5.016442539203747053e-01 1.718018649435519019e-01 4.857541364789897398e-01 -4.114310085256168148e-01 -2.571063364622297454e-01 -6.364511375156385597e-02 4.973495610259597299e-01 1.244273365078603019e-02 4.032591152383731975e-02 5.703320374792512221e-02 -1.187985999554765915e-01 4.487797196743231742e-01 3.533735757257310262e-01 -2.017962799698363452e-01 -3.208768776683365576e-01 2.701231197683509264e-02 1.839700718546528613e-01 3.815171576902469663e-01 -4.659175435587742387e-01 -3.919707034094317422e-01 -5.036132717543074788e-01 1.089208367764835789e-01 -1.030583664515730552e-01 3.558962337304250600e-01 -1.550751203885862295e-01 4.380792771940368313e-01 -3.461510118240214151e-01 2.127205892186981653e-02 -1.877936956922720557e-01 4.052365926786836714e-01 4.559375741044044972e-01 2.829549560421150689e-01 1.027309934421840112e-02 -2.777526766186487195e-01 2.283316088538952238e-01 -2.342205478227587789e-01 1.731172260779633709e-01 -2.168717478632395945e-01 -4.632637426100772449e-01 2.152129703451547416e-01 -1.312222375153090093e-01 -9.332607971441311823e-02 1.562676455737642411e-01 -3.720228833448575023e-01 3.865585760670156024e-01 3.580443707973920420e-01 -3.394819181840072475e-01 8.775679739091345188e-02 4.954119781301697945e-01 -3.570288388690108783e-01 5.600498227261422324e-01 1.264329965409412559e-01 -5.742671316782782531e-01 1.619985377480691324e-01 -2.086928879148939875e-01 2.774730000448365486e-01 1.093921747412758549e-02 1.788418525261279701e-01 -1.281680230200560600e-01 1.932721487579222297e-01 7.872065656454087235e-02 1.942273853097439273e-01 4.080515698278491254e-01 -7.307862737636840189e-02 -1.449182079884844820e-01 -3.490959337969732901e-01 -1.073648755519794433e-02 5.339392557576568832e-01 -2.143881270198267075e-01 7.799205945847023647e-02 2.888467639711824603e-02 4.467483243017971728e-01 -1.321651982449703056e-01 4.105618957119214207e-01 8.614057028729529830e-02 -7.504533779831765172e-02 1.267437347830151217e-01 3.402246594645219058e-01 -4.425116198104208504e-02 3.820153636954529142e-02 -6.299395552263221676e-01 -2.691952481278145903e-01 5.041878534913944998e-01 3.894809996631283799e-01 3.668966827973189626e-01 -2.698295272480400464e-01 -2.948601513635668581e-01 1.530617446419767214e-01 4.712402441052421231e-01 1.286142720808159112e-01 2.756652886710833639e-01 1.633996375171862248e-01 -4.403811557922613362e-01 3.138208589700749451e-01 -1.798953461267342735e-01 3.098324103566615917e-01 -3.404789647660718677e-01 3.024564979885551175e-01 -5.234822960952288939e-01 3.077595334328969701e-01 3.831493246854935641e-01 -3.693359453851668972e-01 -1.547630416836409950e-01 1.991831937850888079e-01 3.155662220483014813e-01 2.436078912213612835e-01 1.679527275020276933e-01 -2.892990429993178569e-01 -2.540331420504632343e-01 5.971020538434655966e-01 -3.496094368217773640e-01 -2.890890649090960829e-01 -4.417699028454889765e-02 -2.706713019427015032e-01 -1.115040483021999818e-01 4.891975012461806660e-01 -4.064674767833799107e-01 -3.138736071732615152e-01 -2.234337069185471647e-01 -2.466358680889452482e-01 -1.530082516019778127e-01 4.377262805201659335e-02 3.096724345741739409e-02 -2.861574678115271775e-01 -1.059603287016381429e-02 -7.026259441669723271e-01 1.803269533287505111e-01 -9.915097621075814882e-02 -8.165058240955570812e-02 -3.108801726615172401e-01 4.269826881100634020e-01 1.363736617430197362e-01 4.580272695863580878e-01 -4.037391986143156197e-01 -7.294410930446992847e-02 2.128204564778059527e-01 -2.207983750104616782e-01 9.106698734928032890e-02 -1.007238794554411176e-01 -1.614763724628227315e-01 -3.139724813755344068e-01 2.346884203174193773e-01 5.272221775038750113e-01 -1.317800760856419340e-01 2.025652751667115781e-01 -6.145343089643119372e-01 -4.937418044917982196e-01 4.447185566569729631e-01 1.046536152630590383e-01 4.462512702219962879e-01 3.977696866471013837e-01 3.571131137676025746e-01 -3.340304045022079449e-01 -1.160741403951277700e-01 4.318305250869092227e-01 -4.411745879737025144e-01 -1.591613739489216861e-01 2.223996320973057605e-01 -5.915989381453349433e-02 4.111319423965305586e-01 -5.022641549148463280e-01 -1.493870481874316758e-01 -1.445549537206053392e-01 3.162252642682845671e-01 -1.350731106723688790e-01 -1.772218348803835525e-02 -3.455366454831280687e-01 2.537135988591932567e-01 7.159788916601129982e-02 -3.102042626805744385e-01 4.648212117170852919e-01 -3.822744773417466879e-01 4.529059502164199391e-01 -2.998134880080196574e-01 -1.727173691736486050e-01 4.238724382448004202e-01 -3.380141033877304135e-01 -2.034653207602512837e-01 6.043151533520201707e-02 -2.558027607209859555e-01 -5.505682995500611465e-01 -1.448768082994612016e-01 4.870071016218035509e-01 2.193385215987729286e-01 3.343464158826553456e-01 -3.033728379154158605e-01 -1.114312773156202752e-01 4.773038195174795773e-01 -2.493780813242764058e-02 -2.864493133527383772e-01 9.029909642827858851e-02 4.127809910712121888e-01 5.954240566831553449e-01 -3.659011993487664149e-01 3.350861707857983873e-01 -3.615383592380825850e-01 1.139678628843667808e-02 2.079306015394844637e-02 -4.034431569134132034e-01 -1.666171357516798290e-01 4.466397473096089810e-01 -3.773481172167618136e-01 3.088045777077515486e-01 -2.122094031402630976e-01 -2.379177871781659181e-01 -4.265520261545687752e-01 2.709505482529057652e-01 1.944558426531159123e-01 -2.807401198130360376e-01 -2.798541821831953547e-01 -1.911064964829323476e-01 -3.625083321650199863e-01 2.490391893472851670e-01 -1.056998398171302006e-01 4.621219245398087705e-01 -4.368118595221820444e-02 1.715720860105451606e-01 -4.244549849792604856e-01 -9.703789510911067784e-02 -1.337694535783379435e-01 2.875693087125881231e-01 -3.639138963309413444e-01 -1.561222998413923924e-01 4.715440244622493560e-01 4.975640870780193015e-01 4.476479372440773652e-01 -3.668604295216330580e-01 -2.208327202385690635e-01 4.771477696160264514e-02 2.660895149645657320e-01 4.203428879721264333e-01 1.910080549941850780e-01 -4.000310705376117770e-01 -3.552139619135295523e-01 -3.788899827956037636e-01 3.182252246282664676e-01 -2.416054022234148391e-01 -7.983177963606511579e-03 4.573909073602905884e-01 -5.175011868530492859e-02 -5.350521038042650446e-01 3.522460875988078222e-01 4.546575023704976237e-01 -4.597528913159986130e-01 -2.939062543124908444e-01 3.044842883904572695e-01 -4.897812080624370235e-01 -7.771520228600783953e-02 -1.920781395231767885e-01 -4.265243902455396752e-01 2.101351041444692591e-01 3.808203787499779280e-01 1.101667551590806114e-02 -2.731971799151828306e-01 2.531931772806024217e-01 3.112435011208627630e-02 -4.778806808624844887e-02 1.805957239788978930e-01 6.243479951837736103e-02 9.992894589534909167e-02 2.392638195150035840e-01 -4.284016110524662690e-01 1.809043164754096655e-01 1.891472444267486563e-01 3.902372766413932381e-01 3.802332406064015125e-01 -5.268391581828875403e-02 -2.023645308002549603e-01 -2.547450914804673672e-01 -1.644807875674367814e-01 4.395451478566868020e-01 1.084644686489667914e-01 3.454196860300133287e-01 1.795424627964532505e-01 1.190543793865272426e-01 5.223354118924273398e-02 3.988033467623116612e-01 4.119270613129921710e-01 4.399454934290178421e-01 4.813246374190547905e-01 -4.960924535355298870e-01 -3.423940836650857245e-01 -1.429920499008035806e-01 -2.523306924752183877e-01 -2.312779787634365591e-01 2.069971123338170127e-01 -3.001082629984768713e-01 -5.122457222267011445e-02 2.479195035598732166e-01 2.583271232580980903e-01 1.318682853832141566e-01 4.649917901304490564e-01 -3.595122104099486293e-01 -3.625246243324296569e-01 2.428838166121360248e-02 -1.743134679056358438e-01 5.135425353069599241e-01 2.576641093196239268e-02 2.627011881490580181e-01 -4.977747858023392480e-01 -5.024162880029657552e-02 3.139048750283906508e-01 3.660553652014259668e-02 -6.233039020197424923e-02 -1.545794680704202784e-01 4.569190847155505677e-04 2.372211806805543111e-01 -2.461703139796034279e-01 1.803680563910871337e-01 -1.322822468485694292e-01 -3.262356654483287710e-01 -5.289785217924965199e-02 -3.123300260520282534e-01 -3.037073836038743369e-01 -9.294195073649653971e-02 3.648228663383714654e-01 -2.225923688093578989e-01 9.077880430344416329e-02 3.890339040233440349e-01 -1.625087045739583014e-01 -4.468498200429555922e-01 -2.730738628908278565e-01 7.054380638331175790e-02 -3.489892050593375039e-01 -2.365765999574402367e-01 -1.257000868582489050e-01 -3.519420137758093037e-01 -3.579424864434272990e-01 -1.876799359437966719e-01 -9.117182214707535148e-02 -1.180823522199165865e-01 4.431818898110015392e-01 1.391098563454530868e-01 -2.954219075279848616e-01 -3.336123155922483541e-01 4.669162345487780884e-03 4.735669068612334831e-01 2.743764972605720609e-01 -3.697303757422667481e-01 1.280352598145770016e-01 4.418367097333592008e-01 4.880267544472658425e-01 -3.051617510814987888e-01 5.488339895986245331e-02 3.416656197765533670e-02 2.790110821008686126e-01 -2.933650007186991981e-01 -7.192710220928229259e-02 -7.060840526160772589e-03 8.484843389295592883e-03 2.868527870815650860e-01 -2.170935179990839126e-01 1.625549911452584817e-01 4.331464397744726469e-01 3.230106593720484254e-01 2.642381083300002209e-01 -2.598095556880321566e-01 2.017012704151973090e-01 1.966830129129580051e-01 1.091876898314754207e-01 -2.876892439840973981e-01 4.712027229211349089e-01 -1.261299024469988705e-01 2.762508479309005449e-01 2.544683453247457150e-01 9.848975544612197097e-02 -2.609971225078801527e-01 -1.951259397260849404e-01 1.486308351270625161e-01 3.065656218842803815e-01 -1.928061468603485193e-02 -1.828724891989495782e-01 -4.279671237713226772e-01 -2.932610367284335662e-01 2.690847774674114956e-01 4.853457005114218403e-01 3.235934190844717562e-01 1.583187628808238601e-01 -3.843796049940027548e-01 1.901665553951018273e-01 6.681304066982286848e-05 2.481755253231248126e-01 1.640838390571236760e-01 -1.706117112057273233e-02 -5.022947896248591143e-02 -3.547919819582329853e-02 1.159467254620199644e-01 -3.038883534138018816e-01 4.730364694072015652e-01 4.206842427896879122e-01 4.112083420024528757e-01 5.098822292389659783e-02 5.156513533617530509e-01 -3.179750166052394134e-01 -2.743757497116621202e-01 3.184873483036802511e-01 -4.769116965158777255e-01 -1.566546961922995473e-01 -5.283510981178147770e-01 2.054781213805367546e-01 -9.413490160053002154e-02 -2.071115757621715958e-01 2.097751305980948000e-01 -4.686849850790017480e-01 -4.512197122155507389e-01 -2.228565780091525811e-02 -7.535566810166521856e-02 -5.470843376045610995e-01 -1.960620005378773956e-01 4.497622155236071229e-01 -4.687188467452624296e-01 4.526410276717648395e-01 -2.395649453838440968e-01 4.614119896149451172e-01 -2.440650583734940426e-01 6.916722038269026984e-02 -2.724523138677663048e-01 -1.645355747316767925e-01 9.950542712536548928e-02 2.753655482995646664e-01 -1.707067435435712099e-01 9.733087872064333235e-02 -1.431437384716625350e-01 -9.150621763775103334e-02 4.332763861955313267e-01 9.864372357615674991e-02 -8.779781375606768301e-02 -3.997764363394002429e-01 -2.744521766938896046e-01 8.881596120514692605e-02 -5.222540939163748848e-05 -3.335833053381884183e-01 1.584518561165527972e-01 2.539412378972342732e-01 -2.122259590225306913e-01 -4.010094796131565831e-01 1.818269086290379144e-01 -1.514560708722138271e-01 3.750053355803288357e-01 -6.239881538491529045e-02 -1.890307359469450277e-01 -3.878456914923244514e-01 -2.628895387974198306e-01 -2.211273063198314348e-01 -1.126331678451735901e-01 1.128662633070628418e-01 -5.030884662994571099e-02 1.415639279416428531e-01 4.381475054062977659e-01 8.221757475814151644e-03 -1.361310682672940420e-01 -6.249505574740871899e-02 -1.332271926941910600e-01 2.452575101677360592e-01 3.649141587234555062e-01 5.434070656490614937e-01 -1.505137329606353602e-01 -4.152112661078439793e-01 -1.751883848009007927e-01 2.634431979183107786e-01 5.458579082096698398e-02 -4.926493962624899914e-01 8.153294902845983905e-02 8.973938057417135683e-02 -2.728340989725126509e-01 -3.492430948276549763e-01 -1.039338195839279722e-01 -3.311334135439428228e-01 1.382042439234369424e-01 -1.082930062901290152e-01 8.668136047473348760e-02 3.451334017308395063e-01 -1.045925445113177754e-01 -7.038086420737336979e-02 3.571456445304899696e-01 3.654587054194076701e-01 -3.599047988304301948e-02 4.638850351668275529e-01 -3.320249824278002637e-01 8.940793035911138997e-02 -1.520990227858221196e-02 -3.063590882215343481e-01 -2.692679736791207534e-01 3.177276075087032137e-01 2.508193633206545203e-01 1.991687459262914961e-01 4.354138613668593893e-01 -5.387189603900805618e-02 -1.757045826112071385e-01 -1.062281448431260933e-01 -6.820005830141885605e-02 -2.617266556102169628e-01 -3.187488774544944281e-01 -3.348098282437216300e-01 4.230804213130214264e-01 -1.427241307540785126e-02 -2.957873493662943054e-01 1.850622768283192651e-02 2.907016594468391779e-01 3.675820696281144606e-01 4.685982033381262679e-02 -4.827455211674710478e-01 -1.766970353959891049e-01 2.999504652781643799e-01 -2.731625314539251614e-02 -5.236605109563763349e-01 -1.907593928803167846e-02 5.014361942313922960e-01 2.373612123899025150e-01 -1.940524510227499833e-01 1.559972188380377711e-01 9.314574316464145631e-02 -2.124342694542417642e-01 1.000439073001237605e-01 1.638663370786763024e-02 -2.522257315760873531e-01 -5.348649755113800419e-02 -9.776668353845505491e-03 8.231297397930294191e-02 -4.464325551131563263e-01 5.335908294576433702e-02 2.502195440992133202e-01 -3.131690745198655312e-01 -4.009653641029571336e-01 -1.799889457287258965e-01 2.002558628794665618e-01 2.890451421326383219e-01 -4.239614322619476572e-01 4.814131548725971155e-01 2.310991131030420420e-01 -1.309957039247227339e-01 -3.694201404864727589e-02 1.892716267611391570e-02 1.252830122007648483e-01 -1.487489796394518560e-01 -4.143699543157255971e-01 4.514728911264705852e-02 -1.557160995882140020e-01 -1.360086231879161500e-01 7.436837306854265917e-02 -4.935618658968165540e-01 -4.512586264958028393e-01 -3.254284623483806316e-01 -3.248519151806688043e-01 -1.398860030936068533e-01 3.205769441812169052e-01 -4.726013371820982356e-01 -1.246941736826426561e-01 4.525898241454490156e-01 -1.997782190220738219e-01 -3.561121269457364624e-01 6.588728577889785276e-02 2.421352679966580213e-01 5.297135560921835129e-01 -3.077354778049510853e-01 -3.745437445906529272e-01 -5.384039212926942097e-01 -3.147769637469021164e-01 -4.559140232803444159e-01 1.500098281254658716e-01 2.394495291090982803e-01 4.668151012458509608e-01 -2.633261502765704143e-01 4.436913111824862255e-01 -3.275269747273048537e-01 -4.351052453427277089e-01 3.007830691206132556e-01 -4.201640218785052672e-01 -1.463371939885113049e-01
3.090544689142989965e-01 -4.048731794954915642e-01 2.282054798850453592e-01 3.558187962238020252e-01 4.154694616865968193e-01 2.712444787670817078e-02 3.881950831369357924e-01 -1.870530610921842252e-01 -1.183362152245299170e-01 -2.583772058021336915e-01 -3.732483686493390934e-02 -4.547349296233386684e-01 -4.314032343100721728e-02 5.090984868548360520e-01 2.487755747518804461e-01 -1.219942516291179363e-01 1.262951797529918707e-01 -1.398804097859992768e-01 -4.732936105170130192e-01 -1.373225933051220038e-01 -3.247902756082208242e-01 5.621296371645838619e-01 6.892521113429596336e-02 3.515034230601804532e-01 -2.222040556578634973e-01 9.133613386395442180e-02 1.541986092274221787e-01 -8.289610548807660462e-02 3.831896182944382612e-01 -3.365432080839090845e-01 -3.072334896620835254e-01 4.363045249076995535e-01 -1.676026675515533970e-01 -3.573423959754361556e-01 9.481367022241547760e-02 9.808967985373262533e-02 -2.617580620840239125e-01 5.747626599671102898e-01 -4.161385614617955919e-02 -2.793531896757606159e-01 1.776053145882347251e-01 6.398081941886425428e-01 -3.605966067340941605e-01 1.517169985856540448e-01 8.229753015604449051e-02 5.028223330423232662e-01 6.121890742794006135e-01 -1.299980360082465258e-01 -1.538300817506740581e-01 -4.803187589679594471e-01 2.556298116940010634e-01 1.363514482289195258e-02 2.640181372418414774e-01 1.549628793481062743e-02 1.901651086515126488e-01 5.123928204804262254e-01 -2.896617788965906160e-01 7.300817300753244254e-02 -7.130938775425391118e-02 -6.478150368067335518e-03 2.079857953311075869e-01 -2.677898317420205343e-01 -2.800064673914194890e-01 -3.319640161264703071e-01 2.283840295162547773e-01 -5.715587091070450237e-02 4.278034750590026247e-01 3.717661245252451563e-01 2.853557535733033390e-01 -2.685351882543302593e-01 -4.654572138136591208e-01 -1.846732493843676326e-01 -1.938775546341715561e-01 -2.386362979271922646e-01 -2.357874550424501336e-01 -4.003811619190913440e-01 4.012253835565327553e-01 -1.242706951853905367e-01 5.331905009740786072e-01 3.204701263629531893e-01 -9.873513254079581414e-02 -2.392622042362883006e-01 2.400340108809894957e-01 -1.397972553320156186e-01 -3.924741861740897036e-02 -4.201410123245675754e-01 4.487846147168901290e-01 1.244228693975690803e-01 4.716363036980192325e-01 2.992603095526858992e-01 2.257535989168988344e-01 -4.088605227266769448e-01 1.059889807006199752e-01 -2.766884381031137208e-01 -1.987891886139301068e-01 3.933266737633366039e-02 -2.643324710078283624e-01 6.750744462255056089e-01 4.487098363176704185e-01 -4.300770646204956499e-02 3.953174253014346551e-01 -1.821331449400986208e-02 3.222898864808925179e-01 -4.040228059620036838e-01 3.731604094435248542e-01 6.526243646950011246e-02 1.681614889130896573e-01 5.100317321543259563e-01 3.022660223687098635e-01 -1.322264956068500488e-03 2.029624336379431959e-01 -1.019164239643334247e-01 4.339844343544611016e-01 -2.672485158605508726e-01 1.988148319825300270e-01 3.742376264016792353e-01 -2.984327994792765337e-01 2.098951094946250873e-01 -8.997568758575164027e-02 -8.462985866745606489e-02 3.599844094044530873e-01 1.024088450501358105e-01 -3.138112047714632924e-01 -2.443553473716279789e-01 4.226849259312443485e-01 -2.417079410966453071e-03 -1.933325059216923214e-01 3.615641419928706385e-02 -2.536158460535323581e-02 -1.987756602686844010e-01 -1.336343599342175170e-01 -3.072821977391078652e-01 -2.946527972743205881e-01 -3.914999927339931074e-01 -2.763819633789628138e-01 -2.694631719613123089e-01 7.119938588292089310e-02 -1.456898553576042865e-01 6.734911165479881556e-02 -3.962958718801639635e-01 2.418208677738860057e-01 1.241343096039265459e-01 3.864156556752690874e-01 -2.008900594541719320e-01 -3.737400882621990661e-01 -5.491766604793320017e-01 -2.004057404096647177e-01 -1.154737619931773124e-01 3.217282501068898237e-01 -4.586771469471020990e-01 3.913674253352186216e-01 2.630305160197553005e-01 5.161519764833278900e-01 -3.215759381176084841e-01 -8.354798176774304308e-02 -5.030046630263068641e-01 3.344079141459678772e-01 -5.708326862679039548e-01 -9.843371172714429629e-02 2.888024994889080710e-01 2.533908026223979371e-01 -1.170331548788766385e-01 -5.217704179200559345e-02 -1.021913961748844579e-01 1.936516768752708784e-01 -3.706406815585927550e-01 8.114791836493208399e-02 -3.934544567934816772e-01 5.565689757011519356e-01 -4.827330096829086231e-02 -3.693013427534646009e-01 -1.831214694004891785e-01 -1.699986460088040718e-01 -3.283239205657208504e-01 5.266201459999307888e-01 1.498839333099446502e-01 -4.000151337208012747e-01 -1.609357417582376881e-01 4.633938521004636324e-01 -2.766436157887496305e-01 4.160295385401331925e-01 2.737083664740136424e-01 -2.911887911365036441e-01 4.892854050013232259e-01 -4.886581117804122409e-01 -9.926842877129306297e-02 3.673377803057345514e-01 -4.744924245310018773e-01 -4.706544685331096045e-01 3.467756644286090761e-01 -3.524527524801559508e-01 3.313677679382462937e-01 -5.911442581665647678e-02 3.059934756254873434e-01 -2.664748004020471295e-01 -8.131767582424780094e-02 -1.949414458731109911e-01 4.730598940816780895e-01 1.281148672563537372e-01 3.086899814790928023e-02 2.446996716222705689e-02 -3.467424039114921364e-01 4.405197903855818942e-02 -4.574987779836552915e-01 -8.050571758799077160e-02 5.227386109885612947e-02 -1.942395760447403197e-01 -3.794096768184881951e-01 -7.481239374651940666e-02 2.224473862504583455e-02 -3.413082068224290722e-01 -1.605775672576617019e-01 -8.645216481742878933e-02 -7.514381717142508410e-02 3.851405863081500680e-01 2.944406615769919466e-01 3.885419529530090843e-01 4.811004719574425992e-01 4.404356795129165114e-01 4.768898646217661907e-01 -2.659392244717360687e-01 -1.844683075002793993e-01 2.943073747044137600e-01 -1.259243066459514171e-01 2.847681530815151518e-01 -1.680636294523015677e-03 3.446420164784401163e-01 1.757304778028728198e-01 -2.118371383818971193e-02 -9.431440726589143675e-02 -1.876036385432806181e-02 -2.818591472184894114e-02 4.591764928293392556e-01 1.387617624842581443e-01 -7.419351533958169764e-02 -1.888880396316473531e-01 3.680016209174126751e-01 3.648135425412534216e-01 -5.281196407003808241e-02 -1.457465354303958405e-01 2.815660413821560737e-01 -2.221942569377944043e-01 -2.901185540484732539e-01 1.203529038298037229e-01 3.507688679974212409e-01 -3.834813366346363495e-01 -5.413765356070363577e-01 3.941189088653874739e-01 -5.173966124808030420e-01 -6.911190379013636143e-02 3.272934261807287082e-01 2.806741850977900188e-01 -2.932295773172358122e-01 1.738485309280019819e-01 -8.683895484321242642e-02 3.994939859693104611e-01 7.379900072414084800e-02 -3.303796105196272759e-01 3.470072535692543814e-01 2.817805507269192655e-01 -4.281614335148614114e-01 -7.284257782864766995e-02 3.656123162630486312e-01 -5.000959050444774290e-01 4.317138379320155650e-01 -3.328394289972935183e-01 -9.749707924589512409e-02 5.022604384450994885e-01 1.984113246672379594e-02 -2.310761927603027233e-01 1.024423376014063081e-01 3.239248305721461607e-01 2.752172612170232513e-02 -5.660334874431114383e-01 2.976495424269020584e-01 2.227634115215012811e-01 -2.326213421998641895e-01 -2.853092424755560574e-01 -4.229665205558665875e-01 2.027767436551689006e-01 2.932192757407934280e-01 -3.188410934770662120e-02 3.383030378193530585e-01 -4.444307604097207931e-01 -3.563707671100965757e-01 1.848707633681529183e-01 -2.632579949533285224e-01 1.078692628470702408e-01 -3.920011851826515903e-01 -1.464930096777589952e-01 1.722625114168867544e-01 4.885335345088490794e-02 1.277369151168315699e-03 3.732382753224252059e-01 1.009493270158485223e-01 2.072513989728765049e-01 4.325522212896648622e-01 2.690135491279694313e-01 9.162613299375466092e-02 -4.459176670470227366e-01 3.530746250429514510e-01 5.414317748831724009e-01 8.020215621764245628e-02 -4.268652008541446580e-02 -4.611559387482459527e-01 1.081749210759649638e-01 1.350836431822417805e-01 -2.328161340600932439e-01 3.075582232084267953e-01 -6.832503639530086714e-02 -6.463238918125069343e-02 4.589748844873202116e-01 -2.944448217628317654e-01 -9.830512786819647908e-02 1.168509541462613294e-01 -4.046029816156310188e-02 -3.811675386625759665e-01 2.628769234677111322e-01 -2.921440898262032682e-01 -1.561991152935513216e-01 8.270853654415744050e-02 3.004112761611770765e-01 -3.182385464443502343e-01 -3.973282014570579945e-01 4.217050858343914799e-01 4.198634883788739947e-01 -1.789790519121445544e-01 7.458246772161959692e-02 1.434349894732049047e-01 -3.315748068829734163e-01 -4.326274736825489464e-01 3.795904549306410025e-02 2.024459065863148666e-01 1.068961432486979918e-01 4.558174821276177457e-01 -2.345943481489739524e-01 -4.733644794960146784e-01 -9.534091703237415616e-02 1.250702479542806222e-01 -3.097058546946663271e-01 4.907932333486102472e-01 -2.492973609309811350e-02 -1.057941135384845854e-01 -7.514830731673138864e-02 -4.988751601007633263e-01 -3.121196792254353203e-01 4.253151735834719699e-03 -1.284972411623037936e-01 -2.165566710232262049e-01 -3.570612804894154335e-01 -3.920470446270616360e-01 -1.131959862599191402e-01 1.245055423684580942e-01 3.622763428547787767e-01 -3.351600438111403957e-01 -1.565094593077031304e-01 1.902314477368755863e-01 3.841830437890378369e-01 -1.105565772444648542e-01 -2.124298745764632845e-01 2.679338007261948280e-03 4.765042774325149444e-01 2.088563888330065565e-01 -3.547332185599646331e-02 4.198058927136062990e-01 5.611374250701376409e-01 -4.705594868939459441e-01 -4.296595652016025335e-01 -1.830658091448279789e-01 -5.212253030474682525e-02 -4.787415123758813063e-01 -3.655060870796171812e-01 1.507312916583118112e-01 4.797118292795744532e-01 2.332115958715583193e-01 -3.459132523578037355e-01 -2.246292791521887489e-01 -2.162353355422433898e-01 2.527145758173897083e-01 -4.000484877923179972e-02 3.087795729445271253e-01 -8.275103847132220247e-02 -6.791320588223830057e-02 -6.452772346581331364e-01 8.645538962081454615e-02 1.067447261687154703e-01 1.377643065863084215e-01 -1.714056323914960392e-02 6.619380362173704624e-02 -3.244213675449151291e-01 -4.865497427530425800e-01 -3.030502462586092682e-01 -4.608112729116481954e-01 4.416082932909728420e-01 3.098718007572979771e-01 1.734435548139487415e-01 -4.736763478828350665e-02 4.375470225896199716e-01 -4.801278121411093891e-01 5.038150364283360272e-01 2.661130146439604632e-02 5.813810572343383054e-01 -2.985877384084022479e-01 2.169028210770122117e-02 -1.308574588777658421e-01 2.403555582802849866e-01 3.995096500250876481e-01 2.670772373149639667e-01 5.829556611844018965e-01 1.279908420977256822e-01 3.312741641603088594e-01 1.636484230349717073e-01 -1.171844079407272643e-01 5.161225260165744899e-01 -1.611439335685360963e-01 3.046314450087034831e-01 -3.467450752593381202e-01 5.499653839252555132e-01 3.792720357762979777e-01 6.938695331011962564e-02 -1.363055378209614144e-01 4.417386649362144146e-02 -3.582164067620353110e-01 -1.297598143124541470e-01 -6.253732751155821612e-02 -2.983225777844519810e-01 -4.656999711068109116e-03 6.246660963646599729e-02 2.576034028122296538e-01 2.806377695359587587e-01 3.592250951411540272e-01 2.997580651744862767e-01 6.139627716495381637e-01 -4.546442931669901211e-01 5.446129140357321985e-01 2.909674603679019977e-01 7.280515039877152872e-02 6.608713742756289200e-03 3.211106194823518667e-01 -1.648490242908474401e-01 -2.010597705292115345e-01 6.457967033723034378e-01 -3.713366746638920302e-01 2.994253188902036844e-01 -4.102860373461654775e-01 4.026626673140364376e-01 -4.170734325926580000e-01 3.325668189215320592e-01 4.139185902262112471e-01 -3.865063797056225020e-02 -6.362014517503686295e-02 4.426164398954156587e-01 -1.548462122334002822e-01 -1.006892917320571373e-01 -5.302321323199194608e-02 4.616034471652835647e-01 7.911300063263586313e-02 1.409187262885390202e-01 9.420550410459858567e-03 1.724912237990022801e-01 3.022744808912165571e-01 4.952204183156246886e-01 -4.226307004544397894e-01 -1.340446628650108218e-01 1.369322447459501990e-01 -2.736173063335734512e-01 -6.667838946294371572e-02 -4.587883071862232653e-01 3.280410337357468897e-01 3.426897637267398156e-01 3.200373666204650580e-01 -2.046336516156938568e-01 -4.430495167144396507e-01 1.619256455202181533e-01 9.595420112174042615e-02 6.650138417188782014e-02 1.579920376855003528e-01 -6.288651133537069560e-02 -3.631608200776272333e-01 4.727255564541547189e-02 -3.900829030224635674e-01 -3.836005670624932362e-01 -9.674618419741698450e-02 2.164842096270492844e-01 -2.789550657256257837e-01 7.534408676284452822e-02 7.888782831883836555e-02 -4.409298750674974787e-01 -4.948330724696066163e-01 -1.146725844561579805e-01 -1.990121778617564841e-01 -1.422579486720282615e-01 -4.985844569872288634e-01 5.814809562708761481e-01 2.451553473238063385e-01 3.865121217570218204e-01 -4.102275772394173847e-01 2.014908965670048346e-01 -1.938559617485923758e-01 -1.294239846825987195e-01 -3.433865363633700762e-01 -1.246820910402177823e-01 2.159542939870373254e-02 2.241216607615227063e-01 -4.016262428839268567e-02 -1.134793274841661564e-01 3.881103793545309100e-01 2.340891499032077966e-02 2.167452733620091054e-01 -3.315054482338170017e-02 2.817294788135413786e-01 -5.748473286892500367e-01 -1.954706840418264369e-01 3.234475689297752199e-01 3.173655866698699146e-01 -3.634966746028231999e-01 -4.263533218069457953e-01 -4.974878279799042902e-02 -1.414035941904302485e-01 -4.143638806692157561e-01 -4.978132022202568785e-01 1.319680909955554260e-01 -1.446994158108110551e-01 3.254763620345100250e-01 3.982641321463575856e-01 -3.277946003267560027e-01 -5.841179519207545523e-01 -2.910536487467029615e-02 7.978630950554374546e-02 3.858321010421563724e-01 2.142159528997230056e-01 -2.193303102877553964e-02 3.776060391165687036e-01 -1.806858831255424847e-01 -4.177423620942372073e-01 5.411469829670977338e-01 -3.636769147959642567e-01 -3.635779851191697776e-01 2.823042258189453323e-03 4.637739229311105826e-01 2.252643433867929645e-01 -1.946205815239180903e-01 -3.887678300460749026e-01 5.909964928004162177e-01 -2.528072982081187581e-01 1.361780860647847091e-01 2.169230070732613425e-01 -3.352252258910417559e-01 1.571037605896350164e-01 3.287188037837271426e-01 1.627682756789209095e-01 -3.194147301473886369e-01 1.187408163031469649e-01 2.983739234622828085e-01 -7.370041921620842928e-02 1.685745136722942850e-01 9.464117683826474281e-02 2.464058602500320827e-01 3.980107979307415111e-01 4.518196704579668377e-01 5.266530912251675689e-01 2.497919487237107161e-01 2.431682674751119710e-01 3.630922494321499050e-01 2.941270027759207428e-01 2.005364995945496387e-01 3.100287513230758352e-01 -3.160266222872710751e-01 3.896557386447746518e-01 -6.043224683754114951e-02 2.663742254535169662e-01 1.741822970491773426e-01 -3.371894999855344355e-01 -3.535985404482132055e-01 1.319199452139316053e-01 -4.238554153784346856e-01 -1.296426716268680446e-01 5.114981659781336204e-02 -2.890177116935078172e-01 -1.047527198924570052e-02 -4.483918423773199935e-01 -2.521666706894826748e-01 1.088528642040075822e-01 -2.137762294131363705e-01 -2.499380626137264194e-01 1.379550033615079829e-01 6.602716512510206637e-02 2.590687357334075513e-01 -3.941743589657528690e-01 7.599054744283603724e-02 -2.070824576862667910e-01 -3.424474758020483733e-01 -3.718955388725955769e-01 -3.675358779155412092e-01 -1.343833561638722862e-02 -4.026557893706727564e-01 2.841987587357237555e-01 4.300060091387670203e-01 -3.054497254158689001e-01 -1.787225986637589470e-01 -7.700136594826036129e-02 -1.526712777972989710e-01 3.580477772005125070e-01 -2.647397607022274335e-01 -1.146936551197515718e-02 -4.751030943496556413e-01 4.940830408007620272e-02 -2.293681285570391484e-02 6.105489258731743897e-03 -4.742298253279366160e-01 3.837312469897529166e-01 4.580778566757534032e-01 -3.830461544969048782e-01 -2.785810268482830088e-01 -8.983595144935731247e-02 -3.966594656327852575e-01 9.477177360557439978e-02 -1.691984476411890759e-01 5.252168558471860538e-02 -1.587541026802447020e-01 -3.006618747265688008e-01 5.385008487904797692e-01 2.033152712525430617e-01 -4.739431493177082566e-01 -1.418357548816541747e-01 -4.135932054053855639e-02 1.905601354833814376e-01 -5.169038821323649335e-01 2.283484029009935079e-01 -2.257062551953722684e-01 -2.022371710561808311e-01 -1.475992914232543418e-01 3.025345868368643498e-01 1.771783905779358015e-01 -2.584431668538252347e-01 -4.544005934454292683e-01 3.570562104936080838e-01 -1.454300033031789008e-01 -1.446196800651642633e-01 -3.575674016717004383e-02 1.174180797195849193e-03 7.987853178919480934e-02 1.035022587396594307e-01 -4.176509810354234742e-01 3.904656688334421366e-01 -1.877910819235013296e-01 -5.589051479113874704e-02 -1.484523863587882686e-01 -1.727594740937032636e-01 1.795385539682949616e-01 3.519553679812314484e-01 -4.846076730585219261e-01 -3.806730123578861563e-02 9.072226624293035224e-02 -1.119142359380025514e-01 3.271789294077004917e-01 -3.410670510575729564e-01 -3.947086721757771532e-01 -4.400814940541066256e-01 2.533658504536537293e-01 -2.579116595978656057e-01 -3.004309773321013899e-01 -5.998124594285061950e-02 4.983925026995376650e-01 1.699319913784961278e-01 -3.468639991835287262e-01 4.313139156998330170e-01 7.674810934033275689e-02 2.089187453508621062e-01 -3.381126682851353649e-01 -5.466750551117776080e-01 1.914018273014136406e-01 9.705702316510098071e-02 -9.381394337448978327e-02 -3.377733288580574422e-01 1.493982932759062021e-01 -4.395013045591903422e-01 -2.105925999347231237e-01 5.062313943709591257e-02 -3.129805935137790485e-01 3.576405564364075751e-01 -1.252821307380860838e-01 1.662888761599614629e-01 1.080896659075018945e-01 3.506320926118945969e-01 4.619034171163332592e-01 -1.591219121007407533e-01 -4.768989994946312150e-01 1.520948048482902160e-01 3.745399456221347734e-01 -2.731836879105836169e-01 1.106418465300855747e-01 4.714891767677069634e-01 2.061134573440710771e-01 -3.662347701005750911e-01 1.836025082575409584e-01 7.565616597179518343e-02 -4.247357146883112833e-01 1.482064269262801937e-01 7.408531909465615461e-02 -1.872629261576888859e-01 3.953068919464966524e-02 -1.841424880732486224e-01 -3.022886691571507467e-01 1.625527841354768716e-02 5.211492325183162411e-01 -3.448293404178560950e-02 -3.767158191792542854e-01 -4.385483978271350058e-01 3.874005732040404770e-01 -1.460818290785635132e-01 4.571709895405384194e-01 4.156732670261412133e-02 3.065659807832981087e-01 2.938380940244212369e-01 -3.809055608437930673e-01 1.615704437486018474e-03 -3.151238425458777748e-01 4.489121831646891714e-02 -1.634943085530294882e-01 -2.616319708666723920e-01 -4.252304909099646757e-01 -4.540310170441654303e-01 2.184977208844685048e-01 6.351171853620467544e-01 -8.712060848740589558e-02 1.973106073771528080e-01 2.937803586725062921e-01 1.159222817693214558e-01 4.192505212795987202e-01 -1.224680853735947983e-01 2.543957864645404743e-01 -2.513380097818042058e-01 -5.143838937641564968e-01 -5.089800409204510157e-01 4.003325985322828129e-01 -4.649400095955354972e-01 3.908085145477011579e-01 -3.951925489545984882e-01 -2.192029293852150798e-02 -2.875538795138156134e-01 1.997953608291961128e-02 1.824378598285923136e-01 9.165750919348125691e-03 -3.266330076503812848e-03 -2.621937561804836211e-02 2.851131156467813163e-02 1.356194059772884153e-01 5.113557198840439355e-01 -5.028121521761906854e-01 3.294238927393060568e-01 -1.525906771831389286e-01 -2.493863306587118522e-02 2.284560892572969903e-01 5.053725763330954579e-02 2.657077385195932284e-01 3.405992403937603830e-01 -2.397641536883551860e-01 3.276894303003118902e-01 1.930681980734933190e-01 -3.230361267990342761e-02 -4.915740299164702010e-01 1.524934964002854221e-01 2.273285600011395458e-01 4.243859462835755658e-01 3.025162550834863406e-01 -4.600459438599838191e-01 4.144469813447791418e-01 -3.873420576460249315e-02 -3.442126716219069960e-01 2.040258673895452568e-01 -1.894198852110061115e-01 3.480379327154050628e-01 -2.040255021732924334e-01 -3.190390638533926460e-01 -4.582933971245755633e-01 -1.678688784419985203e-01 6.107922719237680875e-02 -9.326675484305566033e-02 2.143844518521129949e-01 -4.110071260181267228e-01 -5.292701874281904306e-01 -4.094564707678053916e-01 -2.697632174210354838e-01 2.455731773678642219e-02 -1.758203688149967692e-01 -3.712285497867292561e-01 -4.317740045412575278e-01 3.594561417428439598e-01 -2.303993882868162757e-01 1.852057010364664691e-01 1.794147659675465051e-02 -8.436526407083372314e-02 4.325836992628725453e-01 2.011142186054640790e-01 5.268356466017664053e-01 5.273775961776581978e-02 2.207103296883376198e-01 7.539512497217036591e-02 2.019212323357411076e-01
